{"HiddenLayer":[0.29558660617520677,0.22281323450376736,0.8822524208088499,0.00004365674361023309,0.0010376549678432388,0.18501293989677384,0.09718995709449647,0.7921340812311723,0.9978431604703348,0.9997960839218453,0.011653585348871126,0.3825904475380793,0.9994185252122328,0.03334597455501767,0.8723849259337472,0.186448992694342,1],"InputLayer":[0.6,1,0,1],"OutputLayer":[0.002260816931677879,0.000028204404287466108,5.644183532791702e-7,0.9976631313073734],"WeightHidden":[[-0.911415711744004,-0.04611105026132686,2.948493515840503,-0.27544539330737794],[-1.7140090460427984,-1.2028250906935538,-0.9731941802721524,0.9818851502002306],[0.8499704580873831,-0.19168990242140388,-4.872137505254985,1.6956453123986162],[-9.707217960353107,-3.6226980833092015,2.936868849010286,-0.5920802791362623],[-11.280327823770241,-2.680180299280084,4.465393360733779,2.5786235373125086],[-0.003998210260030371,-0.41155670518052484,3.2466395760511335,-1.0687929953070747],[-0.5887931222312855,0.16114693317855908,5.272240394332062,-2.036718286616077],[0.5830728595122607,0.029536468900709826,-0.09921533483686441,0.9584579378033543],[5.715713176699127,2.130735204324648,-1.816545832214591,0.5767890430043587],[7.828162642979889,3.135635015730411,-2.5020367399749284,0.6650655042068814],[-6.407055651533909,0.2308825605165584,2.5014458422410786,-0.8270681950019987],[-3.130459808892624,1.195462258221483,-0.6976780756554363,0.20424875735394066],[13.290800731953231,3.5153019967606256,-4.711694258337562,-4.040421491874027],[-4.016546872006515,-0.3287697981546251,1.586206613122014,-0.628205397971762],[1.7510606314998862,0.20630810522885504,-4.682318812767249,0.6652705126214015],[-0.1265482263603992,-0.6327498186439601,1.122764815779078,-0.7645723404632323],[0.6636245786950994,-0.35605543887412994,0.4653005084039088,0.7584725453935657]],"WeightOutput":[[1.6071305111235605,-1.5155574822428166,-5.906483642094445,-1.9474149132527279,-8.105896870148534,1.547860096073227,5.095057894211882,-0.9246544070882564,0.824019627346238,0.6611130268163752,-5.6069049615698985,-3.1511456090270475,5.956796709515378,-3.1268591639537475,-5.053459595592548,-1.1214570216593167,-2.5004311790631575],[-0.5405418373715003,-1.3905885446232695,-1.4826695330128097,-9.110468011676307,7.425329383642601,-0.3278336946121212,0.19096784109909792,-1.3241966866102322,3.2162643272858413,5.96323052422379,-1.7924500945097555,1.0387994172435429,-12.541815708733768,-1.581498851619163,-2.024661452822937,-2.0787282632469153,-2.421336877630731],[-1.072036169795857,1.457195353673089,-0.733667561329341,5.157388020111915,4.3295092156864055,-1.1904783866687403,-1.1688889487829643,-0.7691573290374882,-4.7226569600001795,-5.301800933709794,3.282893885674326,1.1428312435195125,-2.3614758800581797,2.2639304310798427,0.15518117372383378,-0.11523915032008941,-1.1011609810697132],[-2.0135366819151304,1.1089650473016253,2.4112738958037423,-0.24228119511192175,-1.6963879352348832,-2.9997166253630976,-3.8862901996683474,0.4661082258607281,-0.053455951846947805,1.1427481540566338,-0.9529489981783437,0.3884426071203413,1.2967387528349696,-1.1824696523052232,2.9259230022248492,-1.3591269154594352,0.06022720910353789]],"ErrOutput":[0.002260816931677879,0.000028204404287466108,5.644183532791702e-7,-0.0023368686926266147],"ErrHidden":[0.000019165655920425193,-0.000013771904349874213,-0.00004325977085979867,-0.00000861855538590098,-0.00003208978772321268,0.000024236459392318067,0.00004715687310799471,-0.000007255984923654129,0.000004496093390241288,-0.0000028496542637779267,-0.00002340331706806306,-0.00001818549393869953,0.0000233032522174153,-0.000009505093815511228,-0.000041713911177071144,0.0000016839996339111636,0],"LastChangeHidden":[[5.992210127517353e-7,9.987475395366784e-7,2.2290598894490608e-9,9.987868865532664e-7],[-3.5865314514140667e-7,-5.970534767862678e-7,-6.071125923127378e-9,-6.014398983653686e-7],[-6.74212038645878e-7,-0.000001123678115214722,-6.521612806657959e-10,-0.0000011239681948403395],[2.973225363489953e-9,7.506262635715509e-9,-7.598740183062955e-11,-7.758875292984435e-9],[-7.633912753790706e-8,-1.2738400390819972e-7,-2.3776156069006316e-7,-1.2729593458622658e-7],[5.487504111455286e-7,9.146045559883105e-7,2.227075409302781e-9,9.14868178461163e-7],[6.207235232573416e-7,0.0000010345497192232174,4.5695082934561156e-10,0.0000010347908201345524],[-1.7799788445465863e-7,-2.964570382542278e-7,3.1894342564878637e-9,-2.977260780418811e-7],[-5.041745232340947e-9,-1.0197525369079318e-8,-1.4510870564992327e-8,5.069170334056047e-10],[-5.429944118711626e-9,-1.1345474504259228e-8,-8.679470422686509e-9,2.361374886542129e-9],[-8.673370932113876e-8,-1.4362639242946162e-7,-1.5817730546552155e-7,-1.4940574249561594e-7],[-6.673781311607664e-7,-0.000001112430124732681,-7.643950432095648e-8,-0.0000011119455834343839],[9.048729422478308e-8,1.5099219430670605e-7,2.9484435497918955e-7,1.50928907653926e-7],[-6.740018302048225e-8,-1.1142728044856418e-7,-7.502610605855545e-8,-1.1681891433934726e-7],[-6.967092270329983e-7,-0.0000011611696862239667,-6.403596859058422e-10,-0.0000011614726453707787],[4.463547273984906e-8,7.510794508250629e-8,1.8710067161479263e-8,7.134802360311246e-8],[0,0,0,0]],"LastChangeOutput":[[4.604907494085477e-7,2.873921990956771e-7,0.0000011248541339589887,1.3427082490061947e-9,7.599653498691322e-8,3.195013651259574e-7,2.0807844416276354e-7,0.0000010736983127554998,0.0000013500121994611263,0.0000013563824356327624,6.84809276105081e-8,4.990100026326292e-7,0.0000012844645089116897,8.05230612948491e-8,0.0000011122855149726415,2.9527614656267237e-7,0.0000013591255799886433],[-6.311226165336864e-8,7.472576472626397e-10,4.722307116123628e-10,4.983576241789431e-9,-5.513943840359856e-8,-6.335870937788015e-8,-6.336722412558809e-8,-4.79714276399006e-8,-6.258297594542306e-8,-6.645308720671608e-8,-3.943082279412694e-8,-7.020844386979991e-9,-8.411275433289174e-9,-2.7086079436895035e-8,2.897414688601698e-10,-4.385046818821666e-8,-6.290302766771502e-8],[1.3290905354895314e-10,-2.081971818974694e-9,-2.1251106241079462e-10,-3.877044640120746e-9,-7.082463709778509e-10,2.878467014606378e-10,1.3259947659454862e-11,7.414074162303502e-11,2.7298821621495705e-9,3.3470550298808494e-9,-6.166601053469225e-10,-8.905177151911638e-10,5.781667142577388e-10,-9.963983526838418e-10,-1.0087852456467408e-10,3.5852550814647504e-10,-1.8335570451507226e-10],[-4.0244840799386653e-7,-3.034486966932431e-7,-0.0000012016581349357078,-5.849436165517253e-11,-1.3825038999863142e-9,-2.518379594829275e-7,-1.3221173669898616e-7,-0.0000010787868555610653,-0.000001358941972873355,-0.0000013615976970946358,-1.5859779942119966e-8,-5.210972603546445e-7,-0.0000013611136167266681,-4.5397724708646946e-8,-0.0000011882194316846976,-2.5385222315000417e-7,-0.0000013618730920334534]],"Regression":false,"Rate1":0.25,"Rate2":0.1}
