{"HiddenLayer":[0.05679506464400351,0.17300793235350848,0.9713960721985734,0.0236637187719648,0.9500574644485502,0.00020201834830564349,0.1432552837303027,0.004888478997854644,0.06757537234164271,0.7683242866195151,0.024682104469594273,0.1411930910737394,0.9995579758692706,0.9999290032925756,0.28927042711214224,0.9344740657372255,1],"InputLayer":[0.9,1,2,1],"OutputLayer":[0.9992646698919219,0.0014895621410228185,3.774599117713176e-7,0.0002518776097782483],"WeightHidden":[[-0.0700340524708069,-0.35306886206368066,-0.552981292712343,-1.2877721417095205],[-1.7166197124535258,0.48614421658680373,-0.05441725162612013,-0.3968084997524778],[1.2473384971516701,-0.0020977433471774535,1.2651120934044333,-0.1255394456130923],[0.8544063898507951,0.5091281648898665,-2.508323209426997,0.018688401061952315],[3.203245191644873,-3.253331489786824,0.6815384996872107,1.9529855140713739],[0.5024433786607294,-0.3648489232968066,-5.400480865740328,2.2066617674400635],[0.010313745834626914,0.0812026880928536,-0.38243088474924336,-1.1141352366700312],[1.6317622594656875,0.8925256010263308,-3.93334517532071,0.18960531522372534],[-0.6199176743442171,-0.0701872446650464,-1.4863247304094687,0.9762193980998698],[7.200618665453444,1.3052778619386132,-2.709190446963052,-1.1685770345941184],[0.1410807662401229,-0.06351466696450632,-2.3185950704019143,0.8970479357053703],[-14.56167189861558,-3.5409435341385334,5.626291728923459,3.588443301124414],[-2.185885299608896,-0.3188072484866538,5.160698618053261,-0.31158914907308916],[14.723964335629603,4.409924801910304,-4.430570120202586,0.7524459566764118],[-8.54350040789427,-2.2465501384562607,3.6169620104418625,1.8028424056668382],[-1.542715356588666,0.38813076520730727,2.0905519390525638,-0.5232492786844247],[0.6661030989212349,-0.8018728537727872,0.28033743813467593,-0.9912500250634901]],"WeightOutput":[[0.13377964605175663,-1.4161365093823721,1.8149012429780733,-1.9002270874229965,0.21386204158040456,-6.792092478311798,0.26227934936189773,-3.4517305934040334,-1.7997120799252133,4.417967992821641,-1.9852162935536264,-10.328870433024225,4.973447274047199,1.0032018727154737,-5.22398039539319,-0.9091027760006433,0.1321763775587187],[0.28525271550611936,-0.8451348484307594,-2.6285571708394526,-0.7054866923742659,-6.526094598309719,-1.019846293249338,0.06646564628315699,-2.6814489021410743,-1.6171414468133571,-3.999328863030599,-1.5766521036273489,10.11134901886927,-2.023598142011896,14.276815055510545,3.9909729472851723,-4.180002376360683,-5.311897803796697],[0.29307705795605565,0.1242527422444147,-1.4319884033491554,-1.2537492065168374,-0.8327304043026954,-0.09940805314239094,-0.36353582325726586,-1.4609075463321257,-0.36691452034607847,-5.130334474976379,-0.5706482203100779,4.537440014143407,0.9045944386943788,-10.217799031519736,4.451221077329951,0.33954371005605183,-1.5088980867891069],[0.2339416858100195,-0.9196202722479941,-0.7032053313792506,2.061555587577928,-0.5265891440158462,2.869882396319658,-0.23728174437649868,2.6034031922853536,0.6122848565417831,0.3326727734170609,1.9018665541944961,-1.5620066103225525,-4.115172903070402,0.2884073147583359,-2.599172865712427,-2.014024389086316,-0.6497074284070941]],"ErrOutput":[-0.000735330108078136,0.0014895621410228185,3.774599117713176e-7,0.0002518776097782483],"ErrHidden":[5.745303522783346e-7,-0.0000011655583820273313,-0.000006848755804151039,-4.05524961051656e-7,-0.000014607447736465376,0.0000015924209429347764,-9.508146698210997e-9,-0.000003910585788454962,-0.000002571517787804425,-0.000011226458364105398,-0.000002299790832030931,0.000027883347910291753,-0.000007431485353780155,0.000031106395785807106,0.000011499693075966216,-0.000008897293713426923,0],"LastChangeHidden":[[8.061777656079595e-9,7.692225682187052e-9,2.642027429029434e-8,1.873962161954023e-8],[-6.516732556918935e-8,-4.218327594889785e-8,-3.5808109357016666e-7,-3.134332513683125e-7],[-7.778092062209557e-8,-4.7581822098378435e-8,-4.443088409519147e-7,-3.967335616847498e-7],[2.431773950791753e-10,-2.340005501796037e-9,1.533056353125528e-8,1.767272949792429e-8],[-1.915311699214782e-7,-1.733307918000828e-7,-7.02597016217795e-7,-5.290961797206933e-7],[-4.423120069600108e-9,8.292323315777349e-11,-4.7404667886047566e-8,-4.748517653788288e-8],[5.9954189308178094e-9,-2.3443207367683866e-10,6.258453056525733e-8,6.253081316704587e-8],[-9.406354506151021e-9,-4.7548383690408465e-9,-6.374360492370444e-8,-5.8987873938883825e-8],[-7.591187759578327e-8,-4.0507013373850976e-8,-4.783973221443724e-7,-4.378889872915915e-7],[-4.5108893795905836e-7,-4.996041545361798e-7,-0.000001013598032221268,-5.140152207400101e-7],[-3.53275034962955e-8,-1.3839814157329098e-8,-2.615561321335117e-7,-2.477155732466951e-7],[7.609906334357106e-7,8.453035094155382e-7,0.0000016939832134252198,8.487162368117216e-7],[-4.279004697050954e-9,-8.236163842454489e-10,-3.4643578613707644e-8,-3.3822616866522634e-8],[2.468238954516639e-7,5.580264519924347e-10,0.0000024715662323482793,0.0000024709952613780742],[5.324403674433205e-7,5.910861966716609e-7,0.0000011914778741867773,6.004136407228213e-7],[-2.1192363739043896e-7,-1.3620844216452057e-7,-0.0000011618961322238803,-0.0000010256954034931753],[0,0,0,0]],"LastChangeOutput":[[-7.68997673513325e-9,-2.3388761576745106e-8,-1.3132922885366781e-7,-3.2172914665756355e-9,-1.284579865029702e-7,-3.518992096439583e-11,-1.937690216021143e-8,-6.723990280522694e-10,-9.16614673896238e-9,-1.0391089257369003e-7,-3.3642807652171344e-9,-1.9066197970857e-8,-1.351423467779799e-7,-1.352158181752996e-7,-3.908511208242769e-8,-1.2629837349846959e-7,-1.3520807397861454e-7],[2.0513040101836607e-7,5.418294522798728e-7,0.0000015366592159165763,1.1877511259232846e-7,0.0000017426351301223615,5.284552729196291e-8,3.129954616277089e-7,3.7268989244961605e-8,4.976437467744284e-7,4.773965747251904e-7,2.64495003240618e-7,0.0000013572104475488447,0.000001820938118980087,6.795388830254175e-7,0.000001426744074080579,0.0000015475674970511171,0.0000018334924849993987],[-1.2560747447165232e-7,-3.229776621309223e-7,-7.252428763301858e-7,-7.641050660493297e-8,-8.827485498787497e-7,-3.8134035489477904e-8,-1.6904259565554688e-7,-2.4988614775152288e-8,-3.3282191001819515e-7,-3.741853028599548e-8,-1.8138694210604184e-7,-9.280921335397006e-7,-9.195576096853042e-7,-9.08190408730246e-8,-9.190558571999541e-7,-7.479489226432844e-7,-9.284566193813901e-7],[1.1560645788681288e-9,3.0172860467939125e-9,1.7153372262737147e-8,6.50943593041257e-10,1.7011351024111572e-8,1.1606970192403336e-10,2.632135939137182e-9,2.3419356819267475e-10,1.5966033923452808e-9,1.3874643003021843e-8,8.076418232346691e-10,2.405184680713967e-9,1.772359012765039e-8,1.7804547562970325e-8,4.976940737800988e-9,1.5960329469119094e-8,1.781458203083493e-8]],"Regression":false,"Rate1":0.25,"Rate2":0.1}
