{"HiddenLayer":[0.2976994973272491,0.0003411684475683816,0.9971436151127234,0.9348750349988099,0.00018589793911645384,0.0004529425606657735,0.5866392729776193,0.00005362549931017426,0.5156623985056253,0.0846690286136738,0.6028914804178293,0.005126536659405274,4.7189480782921036e-7,0.9759782730646173,0.5382320795913355,0.25153159384300555,0.0000371642367285737,0.9981343552823715,0.978730493891869,0.8691705141244739,0.4072501617150541,0.969012899791363,0.6081904043602363,0.999983437478696,1],"InputLayer":[0,0,1,1,0,1,1,0,1],"OutputLayer":[0.000018204642078142974,2.8230176693853906e-8,0.000012191409076898336,0.9985387639704209,0.000881123739889175,0.0002965230785145656,0.9996041458711878,0.0006979464668223345],"WeightHidden":[[-3.61138507126461,-4.134247990006198,1.9668310292637048,-2.7901356134695994,-4.925725641304061,-5.445398564146814,-0.34554573869793254,3.381666833805475,5.755968745988685],[0.8253945171150595,2.7812502538120683,6.282400595828236,-7.345163743041893,3.35566815897015,-9.17803170181045,5.310330165530788,-3.351178410016294,-3.0523282385744683],[-2.2061048256805345,2.2381017470156004,2.6379521751999606,4.639972351094561,-3.181094075418513,1.9688269083825898,3.085337432011942,4.868390473595927,-6.47675086215404],[-1.0829497160509733,-5.783127585196381,-4.048883334387888,3.4718021757076194,-3.388506453555126,-0.1113065900791581,5.981625074590318,-5.73901784768191,-2.6291302081489762],[1.1618983795554347,-10.589035170893887,1.551149571943633,-0.3223394733932082,-0.6423874398902766,-6.53723655290192,-4.073136382262319,5.073556509174003,0.7914359963169316],[1.2788853649677092,-0.4475119262042294,-7.44350247809577,5.6127655513748005,-1.4154047729676875,0.15104401925265418,-6.631247331110838,3.915002810461035,0.6116480623279892],[7.094160013716877,2.097489079733969,0.6459304771376552,-3.8774646344581187,7.350948956502739,1.3352819283880835,0.9327542620696527,-3.4052635548917918,1.3135905607280676],[-4.163809305796664,-1.7674183512862671,4.302366588997901,-3.9873478685736425,-0.46230179061908405,-1.0575916016320415,-4.674131909090846,6.6361178087822115,-4.416727446315857],[2.7891534665071034,0.5239216758150496,-0.32086944484828206,5.101329375457268,-3.32437242204911,-2.6816816831503827,3.8195163666332173,2.9808435661633403,-5.8556198153685886],[-3.3231682454510816,-1.56066506953737,-2.800665800984882,-1.0221255990637443,-4.675429410977169,-3.3610534298630683,-2.1807992164116423,-1.057160215971609,6.984107866922568],[0.38834563914012105,-3.9597290904937523,-5.5133351018736185,-1.3713243312515953,0.021613030488718977,-4.022790238056236,8.86865265579942,-2.283507159181415,2.4563201992921853],[-0.6797657223352135,2.9489617170804228,-3.6360104869822756,2.4504109742339955,1.711404197854666,-5.495108449050716,4.153286797061349,-5.616153426795456,-2.740764196002963],[2.030314832242201,-1.6055772857022996,-7.6049571687779345,0.4720848568648458,2.7975351671293405,-1.9788678743643084,-7.147388522255534,-0.18314412510819425,1.6926193818862336],[-2.7346411853517045,-0.7995347142106822,4.362378054470353,4.9675013045382155,-2.236087530172036,-2.1173531781254633,3.398408520572127,5.271490679302866,-6.906452867464723],[-1.2521974043072115,5.106667482334826,0.5521113014273269,-5.918701136292873,-0.047682963209686874,7.096493806631494,1.2280819603380018,-1.014108443901557,-2.804754915723338],[1.6419595732988912,-1.5124093506304068,0.5423592560030338,-3.1550145645013403,1.8861999704020649,0.8293948232619842,1.2560174776210604,-4.804329873890722,-0.5632168777569163],[-3.9431552224091475,4.840830823305755,-5.797486618681275,-2.404112369877187,-4.6491826030271675,4.304600474683846,-5.474629903270664,-2.9934605767122506,-0.8284980330325329],[1.1844232148835956,-3.594416334005702,4.884241565529944,-6.269606668548433,-0.1221646761649279,-2.780638732843702,4.77865187941132,-7.097427719380938,5.669633181388753],[-7.614809199420272,-1.7650018723333607,1.152246390268343,0.8238146326818323,-6.649072207123133,0.46216243028188675,0.6469147681308522,2.0333684871552076,0.7438435643012984],[2.7671844146767177,-7.564666081396509,5.670511932176366,2.3160980200175056,0.6081121421207284,-9.857103173787273,6.068267656824472,0.38979043126343527,-2.304124554889582],[3.5833760535297894,-0.48063544331197855,2.3629631713365638,-2.335947394590432,-3.369991135479821,-0.39697701532731194,4.894242981043871,2.2801851672632165,-4.89962604959828],[-1.68676590799586,-2.855519435378825,6.379707015732138,2.0938318270086946,-0.7498122895252719,-1.4901461397193767,-2.751924697226422,-4.492206410207986,-0.7887616497730185],[-5.392236525266995,-1.9974555373337834,3.266696544815554,6.4206245822444865,4.542213024534061,1.5115381936786179,-3.638164010631717,3.538775309218034,-7.120979847985235],[-3.6262319011656685,-5.715114412936482,3.6615238823034835,1.5603857229761537,-3.679125441027727,2.1286888104153054,2.802842709603998,-6.677430930222292,0.8549104813061063],[0.27627623333549667,0.19162335841899103,-0.9313391192690108,0.06191685152882065,-0.07628334944761272,0.584137000311902,-0.9414610647774527,-0.8727031691483652,-0.38179405749400164]],"WeightOutput":[[-0.028874960950520535,0.43414781161689003,-1.2743002656587519,0.39446589501940954,-0.493208133627064,-0.6587025505712126,-2.1565613248238735,-0.7711053054041705,-0.7271935005943385,-1.0660430868214696,-0.6024115920005866,-0.9196199069175623,-0.03381410702623165,-0.8589248891780235,-0.5101525987826786,-0.9810197783381047,-0.8626190061596989,-1.4956903637698475,-1.303848269761469,-0.5870796142903487,-0.6192665933704529,0.04611028046007486,-0.022313827225459416,-0.1669897667536764,-2.877754941814143],[-3.327703226246203,-0.1521533532983107,-4.884559259416956,-1.0414572511114317,2.4900299656259612,-0.7735019268866256,-0.12797088598230955,-1.9741606218460581,-0.41626805521097654,-8.067914305893797,0.7895666501991617,-1.6505381454310248,3.5799115046157275,-2.6758919436541038,-1.890384540751736,0.4317556676797251,-1.7387938729379233,0.07741621609362352,-1.2778616744587037,5.754107397131791,-3.532786431313612,-2.1656271585435403,-2.5699357756992725,-3.890821284919988,-1.3590008351163303],[-5.871289214878402,2.51333607174689,-0.4353788798873238,0.17344879331610158,-6.2040654045036945,4.000987777848723,2.071828819983185,-0.34352873661486566,2.6466709991879016,-8.404212556525358,-6.158527462776864,1.6677966842912462,0.8586762258881766,4.059336038638897,3.889771330701327,3.1114842672260523,-9.075276413916416,1.2062141526608903,-7.738414891284413,-9.733350301111297,4.147013401546999,-2.564415125556833,0.4579352609697465,-1.6864640363847132,2.735423197474101],[-2.706328784825253,-1.4712530367839716,-2.2561887200862305,6.964993318597668,-5.548691604109051,-8.038007917828464,6.835685041701517,-0.15298630289045803,6.515578814526099,-4.229072672735386,-2.798435852821201,-6.030366248557958,-9.832439919311804,-4.9406202085809285,3.5333917184823367,-1.2570415653890128,13.555845836059344,-5.446283683145355,-6.918774559080494,13.746634174810332,1.036615549199579,-0.2788435703882006,5.633926472261265,-6.056265012843486,3.755550960376401],[8.681837821264745,-13.955208929667926,8.556250533792056,-14.357571143699452,6.593982886265946,-6.179579807342887,9.44381302358362,-5.218821798264583,-4.7892835608273785,-3.6081024627247564,10.412551043036988,9.528491235829652,-0.11297196316251093,3.401576183103506,-2.5952328561763136,-5.264761101047088,-1.9109738143177528,-1.9683379700852122,-7.725116078379515,-10.528516063875987,-0.9158432494161463,8.459520269448978,-3.895398419610805,1.4842520990229977,-2.6737683952965923],[7.442001477467134,11.05845713711614,14.402809292460482,-3.45237024534785,-11.977881671534114,1.756886805413467,-0.9250852908019425,4.255477990172395,-4.951370322492351,-2.8992095705851764,4.1543500712203985,-5.953391787548553,4.277776951117923,-6.318908872919181,-10.75450459411622,-1.857161489844177,1.2568361680633293,-14.176825681318673,-1.9533038084258678,-6.770947163546081,1.9906635301238178,-0.37892117838498507,-5.107440704573127,15.851696736393523,0.573233490497921],[-1.3828786597973548,-1.2460602870775832,3.1580481655816177,9.480992947301413,0.6190226361142217,3.111942620558576,1.6324482255807062,12.522054549007137,-0.01214413450329197,-4.9821444968220465,-0.21069090753376798,3.1955368485201636,-8.15483507759488,10.786015899420361,-0.859773545941652,-4.465739842493863,-6.131401116177376,2.8185041175320404,-0.6602064004610244,-0.1681233138005766,-8.081683561041876,-2.119192189408242,-8.475139521707787,-0.24858080414989253,-4.401251086388509],[-1.277371644699026,-2.45956992447167,2.7423110731222833,-2.600577592014782,2.6258469379110663,2.169955059397011,-5.65707689684431,-1.5390686829214757,6.176160403992598,-3.2679934672280826,0.703525122217097,-3.233375085278131,-0.02490486764828163,5.348164741460353,-2.385275029981462,-2.7697904094650907,-2.1313088430010514,-5.548477306429913,-1.3297291932113195,0.3106143514624281,-0.5435367806414317,-2.0782428804727564,5.396737811888779,-2.7190780940556922,-2.184744288394889]],"ErrOutput":[0.000018204642078142974,2.8230176693853906e-8,0.000012191409076898336,-0.0014612360295791493,0.000881123739889175,0.0002965230785145656,-0.0003958541288121564,0.0006979464668223345],"ErrHidden":[0.000012752666582376191,-0.000007717697240539155,0.000013553214515966833,-0.00002904141948952297,0.000017072564728444846,0.000013067960360482599,-0.000010340011585539656,-0.000006058921165387336,-0.000015033508810953014,0.000005151108427509115,0.00001478300581257392,0.00001765061482834064,0.00002251739163179941,0.000013531248996983656,-0.000011517983027230443,-0.000002215626250749991,-0.0000303528694778338,0.000005696259440808917,0.000008041960946570138,-0.000037895254515817075,-0.0000017438680124216318,0.000006443136028758164,-0.00001152795792935173,0.000014172209692962849,0],"LastChangeHidden":[[3.512168150731562e-11,1.7055205943130546e-9,6.682393047777904e-7,6.689565008970638e-7,1.028176331506935e-9,6.672418491360728e-7,6.672418492230207e-7,2.7227479413247718e-9,6.699646998929435e-7],[-4.293511955189555e-14,-3.256773507073179e-11,-3.5371240608164624e-8,-6.603005510523278e-10,-3.4681521365577165e-8,-6.896920736334592e-10,-6.89690779526597e-10,-3.468315881437353e-8,-3.5372850565005605e-8],[5.012830310627575e-11,2.5703008142050066e-10,-1.3561700399672936e-8,9.957823550531879e-9,-2.318156409204032e-8,9.662787039488673e-9,9.662787062571164e-9,-2.2926975090990866e-8,-1.3264185378064161e-8],[-5.764077566728122e-14,4.1586873972080693e-13,-4.424797251096966e-7,-4.424789804735035e-7,-3.748263904208796e-13,-4.4247939828185923e-7,-4.4247939780047743e-7,6.608114930732117e-14,-4.424793322476109e-7],[3.005366381340958e-14,3.2467182424725865e-10,1.6040804177592082e-9,1.1186612815750109e-9,8.099018471634941e-10,7.940845177128824e-10,7.940839522669574e-10,1.1345732270602552e-9,1.928657744644371e-9],[-6.4726912405098854e-15,-2.460559371420852e-13,-1.0593972356156062e-8,1.4803213129924923e-9,-1.2074544142469095e-8,1.4805643203231357e-9,1.4805643209215248e-9,-1.2074789435087244e-8,-1.0594222024157906e-8],[1.1542316962387725e-13,1.2088204583632368e-9,-6.260788394479612e-7,-6.262693499138809e-7,1.390291891020808e-9,-6.274729404441009e-7,-6.274729404146053e-7,2.598400789907423e-9,-6.248745454547832e-7],[-3.140851199023252e-13,2.182802337660782e-9,-5.092792801741483e-9,2.102338761266223e-9,-5.010648708526535e-9,-8.135099697154726e-11,-8.135026846078699e-11,-2.82780112867144e-9,-2.909150927733964e-9],[-1.788917906555821e-11,-9.217751896638884e-10,-9.402152306300105e-7,-9.405495106449916e-7,-6.206841539076822e-10,-9.396098715915206e-7,-9.39609871602441e-7,-1.543644562365042e-9,-9.411535696647931e-7],[-4.587680977202327e-12,-1.9200992601035734e-9,2.0640209516132944e-8,9.798487769829603e-8,-7.926035106112223e-8,9.989644903293167e-8,9.989644896046545e-8,-8.117411899911475e-8,1.8722319963818667e-8],[6.08347058928876e-11,2.508569968241849e-10,8.901847977393935e-7,8.859895818011074e-7,4.529248208332698e-9,8.857111922167122e-7,8.857111917925356e-7,4.765964260393169e-9,8.904772140025922e-7],[4.608197380531745e-12,3.797689247423488e-9,2.2533522162971152e-8,2.6330462862531003e-8,9.959016887086972e-12,2.2527753338259586e-8,2.252775330066717e-8,3.808063920616194e-9,2.6335816850153925e-8],[-1.4771910961397226e-13,-1.8633991544599956e-8,4.741718110708604e-8,-1.8631463270880056e-8,4.741439108509721e-8,2.659072951588594e-12,2.65907309690998e-12,2.8780399605319385e-8,2.8783058699571707e-8],[5.821060816933623e-11,8.093913154224272e-9,-2.3664450811560435e-7,8.755224966210524e-8,-3.159626712883047e-7,7.937396810909484e-8,7.937396801831277e-8,-3.0785435936248434e-7,-2.2848046454931895e-7],[1.3549354271498147e-15,-5.590804204659216e-11,-7.266828109287177e-7,-7.164366384750166e-7,-1.0302073374269057e-8,-7.163807310524896e-7,-7.163807311047269e-7,-1.035798667134768e-8,-7.267387177670042e-7],[-1.201571976510675e-12,-4.261628725726425e-11,-9.57598984945314e-8,-1.0438852415222502e-7,8.663493468300227e-9,-1.0442457150311641e-7,-1.0442457150199379e-7,8.660799773625693e-9,-9.576377286115708e-8],[-1.2053611337835502e-16,-1.045132560557765e-8,-2.5755398962826394e-10,-1.0758027453771079e-8,2.6059300929012223e-13,-2.5786186647247575e-10,-2.578618652496881e-10,-1.0475532291025817e-8,-1.0733346873373895e-8],[-8.012928250435476e-14,4.1981461699995885e-13,-1.3788180513134055e-8,2.6548311128073408e-9,-1.6442714554881042e-8,2.6544995511409333e-9,2.654498915027846e-9,-1.6442273255288498e-8,-1.3787808649364327e-8],[-1.3965241522916382e-14,-4.9159131811041884e-9,3.5750757315289716e-9,3.703202825917347e-8,-3.82659023432606e-8,4.184179198251726e-8,4.184179198386615e-8,-4.3129147038571914e-8,-1.2873565099607763e-9],[-2.447789885931525e-11,-3.4009063135576714e-11,-0.000001080557196198498,-0.0000010784258497457147,-2.2001859616129156e-9,-0.0000010783742952585462,-0.0000010783742952654976,-2.234326588480814e-9,-0.0000010806086218455897],[2.1458433818231402e-12,-3.3709465863746975e-10,-9.185303993609468e-8,-1.0567760250953988e-7,1.3499625138388813e-8,-1.053505254986203e-7,-1.0535052543044756e-7,1.3166453775526207e-8,-9.218406234023488e-8],[1.5684186394905578e-12,7.668149257255343e-11,2.1363845257875212e-7,4.846794809012215e-8,1.651992720862301e-7,4.8440270886023914e-8,4.8440269853077995e-8,1.6525090856362225e-7,2.1369117944950574e-7],[-7.363559947187949e-12,-1.8143122636848883e-8,-6.809215116899238e-7,-7.056005928109016e-7,6.521113146963623e-9,-6.874500329421431e-7,-6.874500331302738e-7,-1.1621998684489392e-8,-6.990720317546941e-7],[1.8068183076146715e-15,-4.486268750168041e-12,-7.485366518694573e-10,5.802640256443135e-11,-8.034965450262556e-10,5.4965913321134996e-11,5.4966542259066195e-11,-8.042187779796291e-10,-7.492516695365831e-10],[0,0,0,0,0,0,0,0,0]],"LastChangeOutput":[[4.950691927757521e-10,4.0395227765044e-10,1.8321511405976227e-10,7.753397187595964e-11,4.2003747720931603e-10,6.282458694475875e-11,4.688311496950814e-10,4.204514826110759e-10,9.724925733762346e-11,1.3567045347447145e-10,5.247650952615477e-11,3.2578860682355154e-12,4.909721466183708e-11,3.942814965659527e-10,5.99353791395057e-11,4.197779903947895e-11,1.141751915488761e-11,4.88162751372193e-10,1.5631786855071045e-10,4.869814563308994e-10,4.492344560541644e-11,3.2666275625397056e-10,5.04334006689236e-10,8.417279529091714e-11,5.601102064260336e-10],[1.082449101416439e-7,1.043634292371753e-7,1.1298499823186394e-8,1.1475509200625625e-14,1.0830595000065296e-7,1.363361387438664e-9,1.081347501419087e-7,1.0822025454162231e-7,1.2252210276769192e-10,1.9004048860916745e-8,5.151304801952753e-10,3.3951844042309563e-12,3.822944940760139e-9,6.729191357778386e-8,3.805148362780581e-9,5.451512274059396e-9,6.895176265999671e-14,1.0473999222074193e-7,6.706468516590122e-9,1.0706763808932709e-7,2.811265996586358e-9,6.360398787319427e-8,1.0687410034443361e-7,3.145775632471694e-10,1.0842974011673933e-7],[1.1895418758192888e-10,-8.845198102836683e-12,1.4675979734370492e-10,3.4764010151854895e-11,3.463821010125244e-11,1.5088663968546848e-10,4.825491554736217e-11,3.3971349297447917e-12,1.5764855251427735e-10,1.1707950326406348e-10,3.268808026734861e-11,6.139179463217112e-12,1.0323253759762615e-10,1.4906499470786563e-10,1.1227193566707987e-11,3.2857539813455017e-12,2.2924163787154954e-11,2.726811281913405e-11,1.2957457162870272e-10,6.561838264675625e-11,7.866146055933687e-12,3.4656766583961066e-11,1.3419981354986493e-10,2.7496880548314057e-11,1.7818020080531715e-10],[-1.5894833170299225e-7,-2.597263110010552e-10,-5.320099519732196e-7,-4.988079002295134e-7,-2.118088245204954e-10,-2.4303495475551776e-10,-3.13082794882411e-7,-1.4116464952832584e-10,-2.751344437466388e-7,-4.519356185859422e-8,-3.216732145219578e-7,-2.735004794311062e-9,-4.176669367774921e-12,-5.208048243143897e-7,-2.8714627924066935e-7,-1.341899050243389e-7,-1.812211064754054e-11,-5.326347915535141e-7,-5.221874920732438e-7,-4.6386228573992463e-7,-2.172654880852406e-7,-5.1708230884478e-7,-3.246145903994352e-7,-5.335135437697692e-7,-5.336339980942401e-7],[1.397228382289944e-7,7.494123273898725e-8,2.0641874586131632e-7,1.8147592438364432e-7,7.783176983192001e-8,5.896861775240973e-9,1.9163549014632567e-7,7.77699261082356e-8,1.0472291614295637e-7,3.4660144426802704e-8,1.1745535482023468e-7,1.232992337831555e-9,5.638797562562028e-9,2.42137950031551e-7,1.0727380566566701e-7,5.2749332264233627e-8,9.59443575961099e-10,2.689026283140903e-7,1.9891217182488924e-7,2.456013749522847e-7,8.110708806799214e-8,2.3373971763259116e-7,1.9810937088397434e-7,1.9435809000494628e-7,2.767425425790212e-7],[5.410121754007357e-9,7.482822317032997e-12,2.067770933931095e-8,2.056436377884783e-8,-3.980812311636986e-12,-1.2527746269990168e-9,1.2878461122340333e-8,-3.458628802943527e-11,1.015601684504555e-8,6.426809796447844e-10,1.3254507625357525e-8,5.0408894771486715e-11,-7.487129096243169e-10,2.029862787021677e-8,1.1827216970328906e-8,5.532870257557217e-9,-2.519823530052562e-10,2.1955886567582744e-8,2.0439883364984894e-8,1.9118117595481407e-8,8.952737219651541e-9,2.1312329409267184e-8,1.2496046421234934e-8,2.1996520296177184e-8,2.07340772420834e-8],[-1.260155959110702e-7,-1.1786004995484385e-7,-4.314250407108964e-8,-3.664576990540817e-8,-1.2229925386785142e-7,7.144080844588548e-9,-1.4497143922645104e-7,-1.2195662689875826e-7,-1.2168399879374106e-8,-1.6327407169904746e-8,-2.4179545718858637e-8,2.2697563658945885e-10,8.226329824746197e-10,-1.0614361209857995e-7,-2.530987131300667e-8,-1.6015226662815964e-8,1.7501060071839861e-9,-1.573975886807816e-7,-3.839025386546556e-8,-1.550125136386886e-7,-1.910027086004567e-8,-1.0978512075042671e-7,-1.38451621202886e-7,-3.9552469176596625e-8,-1.529353466703762e-7],[3.7132711400183736e-8,8.783262672839113e-10,1.2156097920560818e-7,1.1388555593764248e-7,8.911143889790333e-10,6.551392674752473e-11,7.233088722553716e-8,8.742166044026247e-10,6.28179512918491e-8,1.0466017932184244e-8,7.344780283429607e-8,6.245036804566724e-10,3.038591962303034e-11,1.1943161361005733e-7,6.55974055321993e-8,3.068504036187196e-8,4.3937829855041945e-12,1.224315501186193e-7,1.1928121446524037e-7,1.0674005739336834e-7,4.963337059698677e-8,1.1855417850725243e-7,7.494563526977324e-8,1.2181952357528138e-7,1.2268780943389595e-7]],"Regression":false,"Rate1":0.25,"Rate2":0.1}
