{"HiddenLayer":[0.0001210527909847641,0.000005047153393363795,0.000007792869696555125,0.00003846283966174742,0.000008531486866455865,0.0000024681398092222496,0.000005018481605511064,1.732614827198991e-7,0.000020982153175037937,0.040755843570355894,0.0000029718023501988303,4.359380393930948e-9,0.0004419227026913344,9.936544437555823e-7,0.03194820561267687,2.502520450631571e-8,0.005904131491708774,6.291937999622481e-7,0.00001722535548678743,0.006377242357480851,0.0000063440245649240565,0.000013638416019967077,0.000002505618085644633,0.00015843977211258943,0.000005973902353040137,0.9999996265653435,0.0003618322432581931,0.005442477589722767,0.0000023897292032295967,0.000005271633658319914,0.000015009816277752373,0.9985527134389767,0.0000018747469069196024,0.00003509657897235507,0.000002023735844997314,0.12457243696800849,0.000013788501628159779,0.000024295535592367115,0.005839342765611271,0.00003497649410327494,6.545369831739945e-7,0.000007221011651327742,0.018853545425333372,0.000005810452317735881,0.3860114538996461,0.000004679147697764907,0.0000060863006753879695,0.000021042227788592245,8.029083080864989e-7,0.00009989924545283231,1.3300512791607056e-9,0.000021635904194957323,7.252116439046677e-7,0.000006073687540800736,0.000036386065053250364,0.00011427557714332025,0.000047338601235954435,7.685558382724694e-10,0.0005485074447846947,0.0000016472140081800782,0.005423674945233329,0.000002520305570616542,0.00002380708157068296,0.00002421233269813839,1],"InputLayer":[17.983333333333334,1],"OutputLayer":[0.000003212968959564282,0.012668560669932374,0.46615194863731824,0.5318749575175312],"WeightHidden":[[-0.4400146892488369,-1.1051586292881843],[-0.7630621162530447,1.5256865604567988],[-0.6897473224133026,0.6415749590638938],[-0.5608873741208482,-0.07936759059927392],[-0.6092135415545618,-0.7159786603270472],[-0.6861208884820287,-0.5732192393912062],[-0.762934604425602,1.517697727831679],[-0.8826173620364078,0.3039848890426893],[-0.6211647089696198,0.39906272506966234],[0.39867726549253524,-10.350417728350672],[-0.8103741547960966,1.8468102535182922],[-1.0189136099128757,-0.9274721215821763],[-0.2771331785150122,-2.7379691672646063],[-0.7558841818879652,-0.22855216339271714],[0.33385410318751285,-9.432913355477188],[-1.0618524041888604,1.59227980891707],[0.7963812172654686,-19.661970129954927],[-0.965334184245865,3.080969614807985],[-0.5483459577514797,-1.1079267518449787],[0.6953230256661036,-17.698875904602037],[-0.6468525374760787,-0.3354201603149727],[-0.6641013179103378,0.7402708690592098],[-0.7513472570295353,0.6147220910980271],[-0.4159822961301736,-1.2676130544449502],[-0.744287475030836,1.3566497579690568],[1.5571031704135798,-13.187654105675161],[-0.31875885434237083,-2.1889027099608827],[0.9254977725386628,-22.160854961460625],[-0.8331493190104363,2.038381505628859],[-0.6592781043629822,-0.2971357213407429],[-0.6540026598788067,0.65450112262219],[1.1829226981503014,-14.857765075458593],[-0.7423815090956365,0.16347222905616948],[-0.568445965240201,-0.034542626243265595],[-0.7661332254560649,0.6671313316253729],[0.7001467091032454,-14.57031985132146],[-0.673459699573949,0.918769861445038],[-0.5233383362007645,-1.213794632243683],[0.8174960877386791,-20.068211689460878],[-0.5725674653903159,0.035446991730909594],[-0.8052293694467234,0.24143951122321497],[-0.7299807326797176,1.2889899784403014],[0.20061228710056614,-7.569078406901906],[-0.713236593029935,0.7704330451447223],[0.9737904240956755,-18.012159775698144],[-0.6638570386446746,-0.3339839454477215],[-0.6953648523481105,0.49547491699676716],[-0.603466167046796,0.08346319520415203],[-1.0606846021092478,5.037788402918998],[-0.4614738268554727,-0.911846449186212],[-1.147825657029584,0.203683887267627],[-0.5407153720899783,-1.0172817636753033],[-0.7991290887702568,0.23420743321405435],[-0.650602234947943,-0.31146805930907046],[-0.5514328236331336,-0.30506723623102294],[-0.4518644067719119,-0.9498427573796364],[-0.5331038159182806,-0.37108505313130513],[-1.1178144524748221,-0.8844784645961803],[-0.23850774513108033,-3.2157304294357356],[-0.9477098109883403,3.725560234186702],[0.9353736595936178,-22.348265902301375],[-0.7027275026357214,-0.25354687358342337],[-0.6360779780791155,0.7914099624711688],[-0.6000046592963912,0.16168937421966628],[0.8679119832670947,-0.5197177113646088]],"WeightOutput":[[0.8810572597755872,0.22426850255976274,-0.41667366563268865,-0.8771994886516188,0.2103220768265404,0.4170039201262316,0.2614679351692578,1.415121696928911,0.752987964837127,-1.2974047699654423,0.38178762252560383,0.13473294000637273,0.450607602370391,1.351263260971638,-1.274582442284715,1.2979377712063422,-1.4024362286367655,0.4620976775906065,0.4198968300726757,-1.3874630643394188,0.2681570806088836,0.5019220752606355,0.23941017117080207,0.8921567190637257,0.3373764071360191,-0.32160999713247446,0.7992147255633657,-1.4453358599689488,0.3410959477188103,0.34283620683470567,0.5592421135512077,-11.241256375189407,0.9243426212986776,0.4265683845514127,0.24075264189952356,-1.4570362343392893,0.5574391155308496,0.2033042712243415,-1.404988587436462,0.2079185856487327,0.6152681317954556,0.21148781107884843,-1.1343073030346527,0.08883058889179833,-1.4096120632132054,0.29840165060019186,-0.45234776770800394,0.8253694918882788,0.43685135451900053,0.2885318628971251,-0.17598293771374485,0.29998150009337365,0.13205725388516026,0.38157834257398776,0.0024775405498058604,0.4404201451115836,0.06490987996623872,-0.6582507223448557,0.5061813401398967,0.19672080057229827,-1.5986084612597806,-0.26802786999652944,0.25742159082470906,0.8241715522017967,-0.22043811957962842],[0.608806775131226,-0.12368445435601666,-0.8533235306722695,-1.181122477578125,-0.5436875026508918,-0.8818014570143914,-0.08833388745800186,-1.4992630084178766,0.43741965046667103,-1.874402829238997,0.009476381804973283,0.192905836097322,0.27912122093501573,-0.443937197480577,-1.466431116635214,-2.1906604122134126,-3.2371310208780772,0.07161703695009101,-0.1841136788778972,-3.166473798557621,-0.5135223029177634,0.17553874383579848,-0.5255485222986136,0.6304547537907691,-0.012338669962614561,0.028485951100147608,0.5679401846326688,-3.360035460731112,-0.03174885164300327,-0.49118965822622657,0.23397956123125901,-0.09771228169722516,-0.17494397277689733,0.12191192658162492,-0.4867064551603514,-3.237723528716087,0.24046463325676357,-0.4024249710782123,-3.2488665993151784,-0.10432069233358443,-1.001326953049593,-0.12305262235302059,-0.7863924592156536,-0.3759143666483579,-9.585578477564438,-0.5714623217459723,-0.9820584840001902,0.4711953671544717,0.2888163733772551,0.014899771440880205,-0.15146234622773178,-0.3110832830573198,-1.5304631257228345,-0.3294777852959892,-0.3515012791281073,0.17500228893512995,-0.2422134884321984,0.2056689693052954,0.40707667900840916,-0.008423908827265061,-5.233570144333679,-1.1098955755801756,-0.024024871634374077,0.49807295103791605,0.05131873517326445],[0.2907585895856856,-0.7287344979357081,-1.016377374380877,-1.4324690172018093,-0.1404913330566834,0.01074872969599123,-0.6939826704891278,0.3460858548532176,-0.06853744688220206,-0.35062297032974177,-0.6724301285630234,0.6888387972832243,0.2883071429429712,-0.17037006937963534,-0.46837237887936223,-0.5059121380682916,-1.75053544391292,-0.9978626964800988,0.14438430966662616,-1.1144678536149908,-0.41310781095988564,-0.34036110194669145,-0.6669602527788967,0.296429359604512,-0.5938846658918904,4.353509955807809,0.392098125986577,-2.759391032460165,-0.7599621841363488,-0.3544823045203032,-0.27498078104058576,-0.07076365936860524,-0.19282901149805642,-0.26925062209959,0.0189136215762568,0.03865487632121063,-0.8260253740002672,-0.29950513072737023,-1.9299065114401461,-0.7508351186490296,0.1119974342591718,-0.6956630682991013,-0.4650248316045713,-0.6333663041029997,0.21835746019660304,-0.2317442190054987,-1.0189343423344441,0.09426725267404093,-5.0948009056835,-0.2597544193518217,0.7491634022611121,-0.3386503230817107,-1.248597516334418,0.07870832989594037,-0.7737652556995329,-0.13981126584559028,-0.5377497444807806,-0.8308281835081668,0.4329112738909269,-2.9307865236572335,-2.5091437070235436,0.576618254318883,-1.9218135430386722,0.05414610846558463,-4.299478924612684],[-0.8121347060029782,-4.051235156042569,-0.7749415296217307,-1.4825258582189955,0.08782993010464599,0.37202902124863746,-4.029464526282405,-0.9038539463596662,-2.6124348701340807,-0.2896450700034766,-4.016843271046747,0.9408702410617448,-0.16536826444287256,0.8597082966634364,-0.40735932547506065,0.6712017075118653,1.6465129150034026,-4.706356059156382,0.20046192022988413,1.0332352211872804,-0.23511177536829453,-2.991023681610267,-0.3866418321994806,-0.9059868452946384,-3.699758359670286,-2.419705230721075,-0.3778240936336202,2.555866103814019,-4.312301047084967,-0.14134174543801004,-2.8527848201258625,7.327318905367235,-0.9801197539622543,-1.7808743505792135,0.21888747593558133,0.06359119863687657,-0.6599169193473678,-0.2833305711950238,1.7513571813999607,-0.9658162284156268,-0.6587874213639944,-3.8926298753953796,-0.41358712848459483,-0.45701460340075767,0.22356929465052533,0.04088490297340324,-0.7291865197985079,-1.1917280558868353,-0.9168544656564509,-1.0776311557379277,0.6807141269451936,-0.3543912667400125,0.03507028929830943,0.25534059895835387,-0.5966580786928523,-1.1933879083215255,-1.1690207738594085,0.7558859567558333,-0.041980860914487286,-3.827392282144703,2.937228497044212,0.6685708467942616,-0.3220718092213862,-1.8672884393760187,-4.990781481008409]],"ErrOutput":[0.000003212968959564282,0.012668560669932374,-0.5338480513626818,0.5318749575175312],"ErrHidden":[-0.1460787653107826,-0.43970505565306367,0.032266968152062384,-0.006210717029527385,0.030209568041087553,0.04769957406590224,-0.44143320091014593,-0.1659110801182856,-0.3367853257959024,0.008286339012558118,-0.4426096172229454,0.033115958295493006,-0.06015201817344306,0.13641318231034388,0.008328117272592549,0.1557496331765827,0.45014329533595243,-0.49067706544441225,0.007336509143075716,0.28444149865743734,0.02366488739430409,-0.3508509616447193,0.03732043308705924,-0.1592569536277761,-0.4110567524654338,-0.8895607374302624,-0.10203074954996308,0.7045707409154639,-0.47011448555168156,0.028297791460890353,-0.3412207345128985,0.9886768571528782,-0.10420586481247901,-0.20004810381185004,0.02639720721211378,0.0038696250427374982,0.02238465426830792,0.0022050657462211534,0.48785473151039616,-0.028168455356713765,-0.10227966006682848,-0.42309461601661946,0.007051825221804545,0.023561938382640764,0.0024754197116068494,0.036111227324457616,0.03864546721972566,-0.17026682268001683,0.5554747340032994,-0.10819649702785217,-0.009404801825250136,-0.0019904830548002836,0.17027849387403815,0.023305877967403646,0.02372563004298317,-0.13943491438394573,-0.08340868178908173,0.21050916527990438,-0.06300154502916246,-0.11750021531974153,0.7215314331708212,0.011757997268445924,0.21265911854228375,-0.2543957274417168,0],"LastChangeHidden":[[-0.00005952977258494909,-0.0000027569084604267094],[0.0000017957216757916908,4.2617586676991193e-7],[0.000004842961763036192,3.721548789019132e-7],[0.00001177026096474641,0.0000010105551038559223],[-0.000003846221876691825,-3.527016227790007e-7],[-0.000004618335079076103,-3.996037766277915e-7],[0.0000017257475327928121,4.1985447980109204e-7],[-0.0000025690807404432626,-2.1060498082073443e-7],[-0.000014885839983191744,-3.597451263063768e-7],[0.0012379452398429962,0.00006278128877956609],[0.000004381968169210569,5.290196706500482e-7],[-3.8207145928170514e-8,-3.2013742224511804e-9],[-0.00012118281003968838,-0.0000067864960782219266],[-3.295856254728581e-7,-4.444729939458775e-8],[0.000994442640510683,0.00005076411512153823],[-9.070655856765044e-7,-7.619737735262047e-8],[0.011874311978460235,0.0006602385353730308],[0.000007243711746717512,6.42004487614967e-7],[-0.000005311995998499742,-4.584635847694183e-7],[0.00809518241622052,0.0004499523226561788],[-3.254279989512054e-7,-4.590386305638024e-8],[-0.000006780425560049322,3.132969386880302e-8],[0.000001853437054684915,1.4270799648587297e-7],[-0.00008963299275061857,-0.000004324700970516027],[8.571383173717388e-7,3.77424616321501e-7],[-0.0007599000835833222,-0.00006328248321345957],[-0.00015072685580892195,-0.000007960401084556514],[0.01714382659860379,0.0009533296283720466],[0.000005101209257553282,5.650327821151281e-7],[-6.270982389839132e-7,-7.092496796273251e-8],[-0.000008029700000104084,-3.0818049831691405e-8],[0.006734306488266319,0.0003830867304890522],[-7.267878101787347e-7,-3.6299323531615335e-8],[-0.000015319602082376208,-4.015656954072501e-7],[-0.0000036230511008560464,-3.086549839635976e-7],[0.0016370347344118194,0.00008381724642633244],[0.00003424545814567754,0.000002815198809838373],[-0.0000017304885635753854,-1.5093766353808032e-7],[0.012729490104888993,0.0007078110199676272],[0.000023531150618953306,0.0000020836389654756747],[-0.000003788833538634562,-3.074767559164007e-7],[-6.527162185360692e-7,3.263382999172983e-7],[0.0005200893146794472,0.00002708060544871409],[0.000005094571304565097,4.0739776709273455e-7],[0.0019995875884480266,0.00009350117159416117],[-0.000002409028696514631,-2.2188286837300374e-7],[0.000002159972674417358,1.5059860442013226e-7],[-0.000004907052912653856,3.7592987511076536e-8],[0.0001013967274015199,0.000008393895272930342],[-0.000031315467593974914,-0.000001262497914238444],[-4.575939626926194e-8,-3.811821371529632e-9],[6.518775043443818e-7,5.963107358691235e-8],[-2.3329492375515026e-7,-3.492904693479772e-8],[-0.000004075214625249304,-3.5730621111670275e-7],[0.000020995801912107794,0.000001641963122073886],[-0.000050611508065694923,-0.0000022317266897818113],[-0.000003817959809727056,1.7392091079615631e-7],[2.6139060810297604e-8,2.1601419340997946e-9],[-0.00015889150743396681,-0.000008935769975850531],[0.00005522027620335597,0.00000462563714494918],[0.017494730271683367,0.000972801909881432],[-0.000010964146442982275,-9.174195279047667e-7],[0.00010457409756683659,0.00000808327074796179],[-0.000012762652687110878,-2.9586227464671934e-7],[0,0]],"LastChangeOutput":[[3.157584256131698e-9,4.1359056696518747e-10,5.973444730551033e-10,1.833715115789844e-9,4.981043853769957e-10,1.8579676188123816e-10,4.112088566880042e-10,-8.312096838152066e-12,1.2949889005577548e-9,8.004250160162241e-9,1.9365705012872714e-10,-5.170450575278188e-12,4.665932753231562e-9,7.982089046208734e-11,9.225255039452877e-9,-5.2973598613634614e-11,1.0027038011779392e-10,-2.7838663646077104e-10,7.708167081316549e-10,2.02744612692931e-10,4.2670144671495744e-10,9.790524857896428e-10,2.039367001658898e-10,3.6363075482596925e-9,4.957707103235306e-10,0.0000021160693550212964,4.847858405682264e-9,4.1363213364395684e-11,1.1068422765005547e-10,3.691859068764252e-10,1.0430496059905846e-9,7.814591644183201e-7,1.5250507138335805e-10,1.7327653454506545e-9,1.6063173799592717e-10,4.395954755191374e-9,1.0232528280504486e-9,9.658938429055468e-10,8.695775443579873e-11,1.7626978621358785e-9,4.210378427640866e-11,5.964616378570202e-10,1.2049301284061389e-8,4.66397547327023e-10,3.6064975299416712e-9,3.3208167350946864e-10,4.7148185147123e-10,1.2071320851774588e-9,-1.4348135334133611e-9,2.9160772695024006e-9,-9.01878776350221e-12,9.354938249617028e-10,4.93669480775771e-11,4.1319941120816066e-10,1.6607653153472363e-9,3.173897244485682e-9,1.980291519218823e-9,-3.5744667132313253e-12,4.642130166211223e-9,-4.6401139167816466e-10,3.876691796779321e-11,1.9610176784961568e-10,1.576641591631257e-9,1.370851472882618e-9,0.0000020996131436941872],[0.000005422570665694678,0.0000015609532678014898,0.0000015526742492967633,0.000003546802567318985,0.0000010490289971018209,4.808724650834065e-7,0.000001550891029396116,1.0946909268341531e-7,0.000002777295390324911,0.000013714627164536822,0.0000012198179535575336,6.233710537366027e-9,0.000007461533693005502,2.940568602783068e-7,0.000015223217615925361,4.62672074815488e-8,3.8532583963904175e-7,6.530227018321615e-7,0.0000014713402243006946,5.588783754474406e-7,9.77533204965429e-7,0.000002333551703303276,7.217377703424509e-7,0.00000615037987193836,0.00000165121953877167,0.0032381694748925475,0.000007849016231709323,2.7805927271485377e-7,0.0000011241607518563029,8.749760848154791e-7,0.0000024176615648451526,0.0012198069545701763,5.117692719489274e-7,0.000003388192976150179,6.364914355480845e-7,0.00001157037308425829,0.000002499873900673262,0.0000017876117041763835,3.626497719274053e-7,0.0000034649321646946046,2.6017445097575837e-7,0.0000018323413025329581,0.00001902550689552327,0.0000013326070043945507,0.000020727045596329274,7.980523154921906e-7,0.0000012538419668080209,0.0000025037585732173737,0.0000014902154363419091,0.000005085458402392767,4.1211952168590935e-9,0.0000017668581795651247,2.7801583982640806e-7,9.567050018813116e-7,0.0000031726706116051097,0.000005495021459826249,0.0000036976479230548435,1.9894030313072124e-9,0.000007355619136162988,0.000001546363583715796,2.7339271246282667e-7,5.419514351547848e-7,0.0000034694385070042206,0.0000028230624589402092,0.0032526971609098615],[-0.000009636103921377485,-0.0000017848763539935543,-0.0000018675706787294227,-0.000004951978807947093,-0.0000013702312555029396,-5.802103000245712e-7,-0.0000017734990750329074,-1.191366389172095e-7,-0.000003574411072857103,-0.0013661229432093728,-0.0000013624155180944438,-6.594829411935029e-9,-0.00002239352864043214,-3.376619366584489e-7,-0.0010755322821807572,-4.8698602807318924e-8,-0.00019622572670415086,-6.970602674685642e-7,-0.0000020963835792872676,-0.00021210550574440255,-0.000001223531350854125,-0.0000028707987775118207,-8.309892214812237e-7,-0.00001163072230493655,-0.000001909212062591922,-0.03652786163822717,-0.000020138409539064085,-0.00018079215610823022,-0.0000012439275766982981,-0.0000010816575782158899,-0.0000030034875013747574,-0.03438760510894518,-5.924977441105182e-7,-0.000004675901103301017,-7.266509762527882e-7,-0.004144170195495626,-0.0000030481161813194913,-0.0000026587454120570752,-0.00019405164281420024,-0.00000475144122833455,-2.9127347026476003e-7,-0.000002138313117307127,-0.0006451141937718725,-0.0000015737019990757197,-0.012825910087916368,-9.822784569247238e-7,-0.0000015012633921224362,-0.000003292950643861969,-0.0000015688827948088508,-0.000008584945995360403,-4.299953003825325e-9,-0.000002548991098694021,-3.121077031192019e-7,-0.000001192973761822385,-0.000004495335566859554,-0.00000948636683361058,-0.000005402813065710314,-2.0805030287814555e-9,-0.000025819328524720196,-0.0000016560669439104896,-0.00018016294519832137,-6.452246278656456e-7,-0.000004385396883757262,-0.000003729050264758659,-0.036542905747623755],[0.000004011266828669902,1.6813173750710013e-7,2.5902810273041584e-7,0.000001275736074248479,2.831467768177738e-7,8.203155882022185e-8,1.6717582398085521e-7,5.808819563864976e-9,6.96496027448352e-7,0.0013492850888861996,9.919693184087081e-8,1.4846043110933838e-10,0.000014635577190959627,3.309200711008865e-8,0.0010577004446633877,8.591944759238661e-10,0.00019544246901337207,2.1264076303557565e-8,5.71253113935696e-7,0.00021111296804291436,2.1067948611690266e-7,4.5307391343236926e-7,8.343231621158499e-8,0.0000052495115273384755,1.9887337638391874e-7,0.03310883068622091,0.000011984301420757973,0.00018014836083831597,7.986280591684666e-8,1.7510796601506164e-7,4.985324089052766e-7,0.03305958689085816,6.240674608265926e-8,0.0000011641847033156639,6.742212654210679e-8,0.004124145123016469,4.5815317829886726e-7,8.055339240283211e-7,0.0001932958159962551,0.0000011602600149287796,2.1842406566481687e-8,2.4028145187137165e-7,0.0006241888470169944,1.932504777378373e-7,0.012779542532069046,1.55441575345829e-7,2.0233061926788503e-7,6.983032122550329e-7,2.7570290412021675e-8,0.0000033107178697049104,4.6762481816234576e-11,7.174683782530142e-7,2.41940672798066e-8,2.0171567064267547e-7,0.0000012067322212610379,0.0000037869434957949155,0.0000015696838933017317,2.6762014440520695e-11,0.00001816417826097384,5.55604860505071e-8,0.00017952508812025552,8.379917348435119e-8,7.904797265864943e-7,8.034672069197583e-7,0.03310885267404045]],"Regression":false,"Rate1":0.25,"Rate2":0.1}
