{"HiddenLayer":[0.0000029941827774173668,0.008275135696788317,0.011604221885905259,0.008829350888758395,0.12197567577697657,0.007075067474079241,0.1206321388780522,0.012338205443872038,0.0036599103513917713,0.006102090174020612,0.11569504232368513,0.000003558341511004078,0.006620608258091938,0.008707001363879804,0.004078241288173671,0.00018928174855125106,0.10376582367155088,0.007370455419931892,0.1056888654397576,0.10515014357673305,0.000008536915820210221,0.007342717214817723,0.09384779826491066,0.003022730670315647,0.007824632542369668,0.008347361622446288,0.07977310091069663,0.10349534085427797,0.12209874354986505,0.0041540111957688,0.00982785490201472,0.0006436416955345942,0.015165095720641918,3.6713490288763645e-7,0.10904879414780379,0.028149810130034623,0.11140885400753527,0.004907636397197389,0.0007450467280807359,0.010807972251432135,0.0036063930303659054,0.0226809552062348,0.1076372586081997,0.006335587115519027,0.026895222324279894,0.10475127284056465,0.000005402104742638516,0.0008676987710394714,0.09770807810003349,0.00022817933934602013,0.005195363941006062,0.009105963326702115,0.009304795179119993,0.12237884931224574,0.06078420666189344,0.11194807151505401,0.017002738525292087,0.005155147957891358,0.007550189723523115,0.003589847670618388,0.11453264627090115,0.000006037528811022063,0.01856172468353335,0.021304740122692716,1],"InputLayer":[7,1],"OutputLayer":[0.5051841091295709,0.48589914251166233,0.008144081624704988,0.000006803886220096143],"WeightHidden":[[1.5099925747949463,-23.29213633675768],[-0.7223589386096586,0.26036655375667334],[-0.5922216137524569,-0.30792327413135884],[-0.496973523379997,-1.2490309488398477],[-0.3318465906992575,0.343150611855073],[-0.668828745876375,-0.2723302737679748],[-0.3246335966646541,0.28060993187648875],[-0.6018801223267847,-0.17837982022245907],[-0.7959213473030152,-0.04608895945160868],[-0.6533723628133523,-0.5258109279834915],[-0.3055681600260716,0.101312065891302],[1.5377294574380382,-23.31330355380151],[-0.7808951747190653,0.4432818417156083],[-0.6864967124384989,0.06086305417819305],[-0.9538050386087744,1.16455961501125],[-1.07603048058592,-1.039583433217668],[-0.2635362635592556,-0.3125152583773766],[-0.5726347109025011,-0.9018932387413807],[-0.2803635684088507,-0.1739818353952428],[-0.27114347224563634,-0.24630357185559892],[1.3952423900909072,-21.43868069585245],[-0.8026715190862749,0.6994898916131838],[-0.25206493888390247,-0.5040836723120905],[-0.7728399571689415,-0.39965212974014486],[-0.64796915334153,-0.3157544596135918],[-0.6512879084127013,-0.2274224760304462],[-0.8893228786508882,3.765560340592667],[-0.27193101639124245,-0.25577334385158573],[-0.3322254189350059,0.34715819108869894],[-0.7964429921534288,0.08538875860346301],[-0.8452289885017809,1.2904092776786904],[1.0882231494593797,-14.95675828755402],[-0.6769597230850336,0.5544033730976844],[1.051127178897361,-22.17209067878392],[-0.26738770813473595,-0.23025514388074325],[-0.6934758167850414,1.3012825231192475],[-0.28353028181482287,-0.09392574934243411],[-0.6780261862713782,-0.5745120101993931],[-0.9015408490768676,-0.8903353396564095],[-0.5612913133009045,-0.5932917151155348],[-0.688874047596729,-0.8018181751628605],[-0.63251073008036,0.6541016364621525],[-0.2742967878859955,-0.19569755380573753],[-0.9168278408520947,1.3489129024668822],[-0.673641187382373,1.115868737236683],[-0.2844005785243308,-0.15990577790116153],[1.485616730766619,-22.530371120826924],[-0.9782406593308788,-0.20127302165207786],[-0.25534950846699833,-0.4362804336624305],[-1.1158186747430376,-0.574230458767184],[-0.6587202458610095,-0.6533988640338422],[-0.6971702288365698,0.1803258051643574],[-0.528281430156524,-0.9773110206456039],[-0.3337951870103094,0.36067273001816375],[-0.8227255270999562,3.008267270990568],[-0.2945666137568817,-0.012115598159935837],[-1.2028480767923004,4.344885501158726],[-0.6099957909416904,-1.0006311198471505],[-0.650630604967851,-0.3334690195778824],[-0.8354685301668097,0.21085305880413238],[-0.30108851854533003,0.059000584910168005],[1.4492638832064932,-22.163133656132768],[1.7795183177244454,-16.358545410741936],[-0.6373584204213502,0.6237297835410451],[-0.8906544234396438,-0.5592830833657063]],"WeightOutput":[[-1.5625064651752079,0.523466092111637,-0.4295395358186557,0.5500459981891527,-0.2290590430750042,0.06643975211850528,-0.12440281655608772,-0.45315901617574794,0.680060700957972,-0.07270283658475735,0.17201883030010637,-1.4076045610639432,0.36561495166900737,0.29045287869452846,1.3337221525059093,-0.40851503950020873,0.5928551627302378,0.11804554786088416,0.8370194730285185,0.0820380294257877,-4.175226280137895,-0.14927768378141143,0.5644058941644116,1.3688905703788457,0.6248729796699812,0.13976662160475614,0.6544554604441973,0.973935126469545,-0.16777459710367543,-0.08620626873481739,-0.11981347956717625,-9.652577863233407,-0.1358862817623914,-1.2619630842022378,0.5273051470855395,0.5694435147765827,0.46177200916224936,0.07601353050845748,-0.40112265526262014,0.24747157954939106,-0.4594186184058343,0.34610252246771506,0.8555094803675592,0.030973512389890347,0.9637609267216707,-0.4868267638846357,-1.9591441614142233,-0.0943097078326619,0.6687157151658091,-0.505344558147606,0.767519438233184,0.9297185964057283,0.5346657389657897,-0.18049269359726663,0.5225949408618443,0.29910893608212347,0.5753205411989057,1.316242959220741,0.3654150313682872,0.5045017925114579,0.26973361271299445,-1.095584766997062,-2.8112116778275493,0.3019346573874708,-0.683577145668699],[-3.056754716290568,-0.2395113386930655,-0.8987625264157232,0.041098109439727026,-0.25088699974316664,-0.8281311653759514,-0.1448381733733671,-0.9013170927035044,-1.1859240910641509,-0.7232561528023217,0.15548043339472278,-2.669890853588939,-0.783572879093522,-0.41590302150406355,-0.8456104301068659,0.544885702320348,0.5861268229404699,-0.5161740388642185,0.8273350248076329,0.07105173504823968,-1.192864535703893,-1.2185112656312374,0.55912891185082,-0.9154958824002946,-0.09978562863332559,-0.5391771871700874,0.515154285779684,0.9667072571697355,-0.18935922105748068,-1.6124739028652633,-0.9857368253733854,5.102734950987341,-0.5881927829045743,-1.4844935204012086,0.5202533725732755,0.28823479858984463,0.4506810282618464,-1.0202260611976712,-0.2297836019768026,-0.09329583860542985,-0.879433328243534,0.048277287078264564,0.8479826648977331,-1.3211048145018545,0.6667329088849387,-0.5036964269179353,-2.1320977847690643,-0.2073347630431304,0.6636088345721007,0.02034946995186652,-0.4070906309345694,0.2108683222654407,0.026986337291274965,-0.20232731808031293,0.3611925051570973,0.28470351289149226,-0.09774946372002907,0.3229343125599926,-0.4114365219438506,-1.4797815470955291,0.25435142723063564,-1.2572319504159897,-0.23544619007722184,-0.03006254485706946,-0.481488558537929],[-0.8786106619374635,-0.0370555966063914,-0.964354042281732,0.09113379577648643,-0.22734614374875048,-1.1039748862160224,-0.11965812483713341,-0.9880259090224957,0.36593383469097557,0.26933666222776614,0.1854420579095055,-1.2159763549251996,-0.9865746778221299,-0.3287313327843785,-0.10485768851244731,-0.32015971582323977,0.6350712903566996,-0.2595774710399119,0.8604123266493112,0.12751964552443304,-0.7776544012639515,-1.275055903238952,0.6216960831818288,0.3363050748985952,-0.004729647542860394,-0.3597742048365424,-3.87139152270708,1.0027612502123193,-0.16772879649978914,0.5114710461279566,-1.4649552336067624,5.1593575210961,-1.0606194018366593,-1.249650824089244,0.5659157505770857,-2.0264967097130504,0.4879252034781148,0.3837017768863417,-0.2751474822584314,-0.4135300881883547,0.18006790773604897,-0.8395574147951628,0.88323537396962,-0.918010332564628,-2.2073772668938245,-0.439163841329542,-1.1343837060365796,-0.062255032840250864,0.7190481776030112,0.359469770116345,-0.04554137228908185,0.08933321773478074,0.0995147386893846,-0.18131859402862455,-3.3854873129753407,0.31919478683551344,-0.4713939908432825,0.44447075705098216,-0.3447033050566869,0.44142600879687344,0.2849072394915107,-0.875807355631187,3.8946360351362075,-1.9050464859701355,-4.671124642374307],[0.6366965289054745,0.2225951203226378,-0.8123300589535404,-0.014940760848981159,-4.949346932764364,0.20099971223838378,-4.617159794473953,-0.8183201929756665,0.38081998225793473,0.6191797284184799,-3.811221094716487,1.0404136481518838,0.11781076517766244,-0.09725957129984038,-0.30510643789270636,-0.5243357981362412,-2.261991331884393,-0.1263319243243074,-2.7816442274520408,-2.708829101015749,0.44901600759195,-1.2487619033090487,-2.1570783557475086,-0.48298542137547995,0.13289655944513482,-0.13818603923322817,-0.32865578180517524,-2.422061794156741,-4.982462729268514,-0.03646982906075324,0.09456806817382987,6.557523672786859,-0.8772207759955504,0.8595365125313619,-2.2780195827452863,0.22517161813750164,-2.8713112400800553,-0.7110118001444423,0.5337604876511343,0.03228060220920418,-0.7543212177246885,-0.9354027704249437,-2.440898002391676,0.45068370998120677,-0.12951958703063285,-3.3430089358009103,0.8148537806700296,0.28145487252390133,-2.105342860930437,0.467754419434448,-0.6489242990875361,-0.3304785436234678,-0.04695269267649743,-5.060588593493618,0.08556101431579471,-3.3985057511261365,-4.793610750369217,0.8459383866655055,-0.08793057841819675,0.44598072990245347,-3.617705502204397,0.6166100204948513,-3.9071460328185688,-0.6429750631244386,-5.376801323943333]],"ErrOutput":[0.5051841091295709,-0.5141008574883377,0.008144081624704988,0.000006803886220096143],"ErrHidden":[0.19518505318364887,0.09692811017957495,0.06120938787702344,0.0642611201815787,0.004278365998748276,0.11472611420077787,0.003871937470180431,0.058559125867203084,0.23823343705613445,0.08376893054528108,0.0027175295041296653,0.16504287954375924,0.14678837244497953,0.09013971684787508,0.2770477150058971,-0.12158365987269547,0.0004907494996201476,0.08123856826563676,0.00037739572570518555,0.002108557827238353,-0.374114002377539,0.1376094362962254,0.00028332047004723187,0.29048424204099926,0.09178853382804282,0.08693698221933534,0.01688126807259166,-0.00023936464792982272,0.004120845193764711,0.19625975530876025,0.11144432416832203,-1.8738583470453642,0.058430854739484166,0.03119713550515961,0.000711335910976678,0.0349900947616822,0.0013836484037611915,0.1406847711998786,-0.02115730895065917,0.04329336690704656,0.054964092745001254,0.03763587439021756,0.00007862411535594918,0.1735626622304436,0.03615554788079436,0.00404048040156358,0.026333996319184143,0.014719834101913831,0.00007622862248214537,-0.06640399004325873,0.14924325103063937,0.09040664330927599,0.06413551675321662,0.0041814979153114076,0.019879815803057952,0.0021501804652226003,0.08531306383517688,0.12481734417568535,0.09902209168775584,0.25380587466199983,0.002357122301844672,0.023050175265663237,-0.32396003367112275,0.04203759334981551,0],"LastChangeHidden":[[0.0004732088151921865,0.000039619745377758825],[0.0013938016449628649,0.00019901024635486243],[0.0012264318967643774,0.00017533202842286977],[0.0009856677480093226,0.0001407197387833709],[0.000829461638941914,0.0001166401667258102],[0.0014074528771851561,0.0002012406814905765],[0.0007517806906038954,0.00010521054996247731],[0.0012461081752334685,0.00017817529985225583],[0.0015244089174254762,0.00021752633633489643],[0.0008980820004539391,0.00012776267080980157],[0.0005353631041885281,0.00007331854259790659],[0.00042137576366611763,0.000035290391533107526],[0.0016882461161411393,0.0002412488380845104],[0.0013623806306480993,0.00019457476140759657],[0.0019701995839744827,0.0002813978378052227],[-0.000040295448208980225,-0.000005754747562837463],[0.0001693556854275016,0.0000185419551144836],[0.001044179781741589,0.00014892707776695098],[0.00013683159921916828,0.000014799371632769688],[0.0004264680233351702,0.00005592299071973905],[0.00012451653879318067,0.000010125829940718428],[0.001754789324038134,0.0002507122727486655],[0.00014161245291340957,0.000013974917403089187],[0.001535052660272336,0.00021910898347054253],[0.001248170419367188,0.00017824257859513817],[0.0012614830743855495,0.00018008593392731224],[0.0019957891337986132,0.00029538325851467194],[0.000044641995068144793,0.0000010703453164382703],[0.0008004580819177181,0.00011250247898993329],[0.001427212211549665,0.00020350570426799723],[0.001894948653459889,0.00027088012480397546],[-0.0011862857132196535,-0.00022426983384124107],[0.0015171137340456958,0.00021732816927686176],[-0.00047370474299265495,-0.00001974679543699948],[0.00020724570680201232,0.000024153053049649333],[0.001593520142355469,0.0002324960722260235],[0.00030964601177283575,0.00003977726457683012],[0.0012113825119739457,0.00017251632706672258],[-0.00002758177586428119,-0.000003939256791448195],[0.0008016355661417462,0.00011501618042036476],[0.00035035470930019994,0.000049770423516073624],[0.0014257435474879614,0.00020570961060414718],[0.00009441273022925463,0.000008326610164607045],[0.0019130987278678819,0.0002732430825981198],[0.0015498238284272021,0.00022770814776741955],[0.000728147391261186,0.00009991867719900897],[0.00032998249616082373,0.000027616928548134353],[0.00002236822511469467,0.000003193323453897097],[0.00010909610267487129,0.000009452372877668465],[-0.000026498372159201974,-0.0000037861698649519014],[0.0013525471527524998,0.0001930608946841167],[0.0014262678000855774,0.00020382866277891254],[0.0010365742381246582,0.0001479662358153717],[0.0008122667643093744,0.00011425784194629482],[0.001832180720745582,0.0002708853751867274],[0.0004326775561584335,0.00005804884949867346],[0.0024946719114401434,0.0003564195550768676],[0.0011215054746184536,0.0001601395907330734],[0.0012991359864550204,0.00018555204458366747],[0.0015928773965598424,0.00022730825900193097],[0.00047134928642556635,0.00006391359655232401],[0.00010964505621197592,0.000009228855835804939],[-0.00923091728098739,-0.001383868187453188],[0.001467830799529524,0.00021361560460974184],[0,0]],"LastChangeOutput":[[1.0613914123984981e-7,0.0002612513077355896,0.0003663532662532854,0.000278749240597576,0.0038508945721631967,0.00022336450765381028,0.003808479525622787,0.00038952557178444476,0.00011554563987024727,0.0001926470113090384,0.0036526150530781076,1.2804916118100465e-7,0.00020901672993986245,0.0002748856761033093,0.00012875252274825656,0.000005975736640316528,0.0032760077755945656,0.00023269042275920394,0.003336715562148199,0.0033197102608805698,2.8736848250765015e-7,0.00023181412918570052,0.0029628869239337148,0.00009542949608651626,0.0002470288286387126,0.00026353172129818265,0.0025184852662042297,0.0032674657870477206,0.0038547798391089963,0.00013114470954958484,0.00031027139642096836,0.00002059669711388047,0.00047877195589764935,1.1719242516443522e-8,0.0034427963818004347,0.00088870770676419,0.0035173014128062545,0.00015493727432695873,0.00002352157520251684,0.000341215301776091,0.00011385615938884701,0.0007160529364845298,0.0033982303687132755,0.00020001830663744528,0.0008490997293950264,0.003307113808578978,1.887144962371401e-7,0.000027393768121036215,0.0030847597590343942,0.000007203756173427702,0.00016402105631291655,0.0002874811330552208,0.0002937591479716011,0.003863622675771334,0.0019189949042887975,0.0035343220025791846,0.0005367864416103762,0.00016275151723263974,0.00023836447932456612,0.00011333369316909024,0.0036159181293332655,2.071048923866976e-7,0.0005879759294686664,0.0006726048524145182,0.03157256726422429],[-0.000018590989017685254,-0.0002664043206002025,-0.00037451007397733364,-0.00028584662629489943,-0.003998458465179681,-0.0002279582399376532,-0.003957237294640452,-0.0003981025444654336,-0.000117725551565275,-0.00019666324034276926,-0.0038027941317058432,-0.000025134582732148028,-0.0002129925549599895,-0.0002804569214864888,-0.00013104749914672463,-0.000006079828899121708,-0.0034278940853036633,-0.00023799226494694141,-0.003483709564093905,-0.0034702075439753317,-0.000028687660133835556,-0.00023617471734694779,-0.0031046159875643613,-0.00009725203213759336,-0.0002522074822058741,-0.00026903971608751827,-0.0025643890997150923,-0.003414991721379592,-0.00400233699138059,-0.0001336183350917156,-0.00031599887716374404,-0.00046165535766312606,-0.0004885623417308639,-2.173627681860323e-7,-0.0036009477652001027,-0.0009066482502289381,-0.00367127323274934,-0.0001580977722018303,-0.00002394660317033829,-0.000349106724683034,-0.0001161557498722562,-0.0007313285002612795,-0.0035508836533262897,-0.00020361937020730062,-0.0008665124846098278,-0.0034511619552500712,-0.000029100261362354162,-0.0000278790330881626,-0.0032310561110130394,-0.0000073286321449085345,-0.0001674240816503617,-0.00029325868014327836,-0.00030087938953145987,-0.004010907307586586,-0.001954871782671858,-0.00368408366828395,-0.0005460229810581949,-0.0001662969183044675,-0.00024334882918933002,-0.00011543308671130882,-0.003766432493482932,-0.00002644566500835994,-0.003732049435328193,-0.0006868688433680702,-0.035263220722346854],[0.00009903056218023557,8.81200925803809e-7,0.000002192703803954792,0.000002584716158004212,0.0000866651898540119,9.467217042048949e-7,0.00008861541527749169,0.0000022329247203794645,2.877916380836909e-7,8.722921706794554e-7,0.00009272888030226066,0.0001057734126763617,5.539806181234204e-7,0.0000010807018827904335,1.828116012035743e-7,5.993835701008187e-9,0.00010090621931197244,0.0000015171463859917406,0.00009482159018047822,0.00009872549047270932,0.00010920112207116401,5.641472916698272e-7,0.00009576649669382235,2.604519805375007e-7,0.0000011480324849073431,0.0000012076368103308634,0.000004616933344567946,0.00009655128817681301,0.00008659238156376535,3.260460844964813e-7,6.430696487779253e-7,0.0005332101771356558,0.000001971596518123578,0.00006616742266657525,0.00010452699518667728,0.0000034205619297171885,0.00009894328637620761,6.300092942293365e-7,3.9323024909941e-8,0.000002344883183285015,4.3940681738743704e-7,0.0000035996170642318934,0.0000996128064306372,3.208011325188954e-7,0.0000035475657151325437,0.00009228456906627854,0.00010977757235933858,3.579052737240299e-8,0.00009840091462619312,6.601297614587517e-9,7.257915753902767e-7,0.000001079862735440494,0.000002354364323966873,0.00008616154115927975,0.000004443088022410113,0.00009431076829753091,4.213034260332481e-7,8.936523422215046e-7,0.0000010947423718329882,2.4240316496421693e-7,0.0000936987059676616,0.00010700667215398176,0.003302738409929442,0.000003294117557691795,0.003340859420192855],[-0.0000770678250235665,-1.2382353047774207e-11,-9.377606038843497e-11,-2.654217337125082e-10,-5.288457350823059e-8,-2.084831518590056e-11,-5.841932252699658e-8,-8.768566541242669e-11,-2.1979244490823487e-12,-2.180425387786131e-11,-7.504568909605668e-8,-0.00007710792313947832,-4.803842035600045e-12,-2.049298669944861e-11,-3.4801685540391037e-13,-2.260680298115183e-15,-1.284724318307148e-7,-7.71485842638063e-11,-1.0102231885368335e-7,-1.1504746662153265e-7,-0.0000770458544909094,-4.0860941589969765e-12,-1.376847023317913e-7,-2.408680187906329e-12,-3.016406444788922e-11,-3.084471121524545e-11,-1.6675879546010232e-11,-1.1271426003220447e-7,-5.270468433986896e-8,-2.477269964052866e-12,-3.265982588436669e-12,-0.00007712935038218561,-4.0635595148083235e-11,-0.00006329005360784658,-1.2773464606149738e-7,-6.175849053145843e-11,-1.0158769908736284e-7,-1.280216901116862e-11,-1.1990989550935155e-13,-1.3195123318335477e-10,-8.09075405375333e-12,-1.0861934930459172e-10,-1.1336375167972281e-7,-8.681115735537917e-13,-7.572373168308434e-11,-9.235838675780404e-8,-0.0000770976678388043,-5.194817138817553e-14,-1.3680571141288623e-7,-7.8504034782176e-16,-1.740170416721609e-11,-1.8735239157120398e-11,-1.7992846420475505e-10,-5.158156074681382e-8,-2.795573499914902e-11,-8.587870592146603e-8,9.66479963132436e-14,-3.259872692540284e-11,-2.8126441535124772e-11,-1.3306264993326146e-12,-7.9619211744065e-8,-0.0000770740903851937,-0.00007717071775162705,-9.545480408443331e-11,-0.00007717070656212621]],"Regression":false,"Rate1":0.25,"Rate2":0.1}
