{"HiddenLayer":[3.921440840849979e-7,0.0010472768873608547,3.609188285977669e-7,8.986913775272753e-10,3.4261491163030718e-9,7.384811515411356e-10,6.868935208147912e-8,2.5848836502703145e-7,3.619769122721551e-8,0.9999975553072986,4.058763319563525e-11,1.1787695283580864e-9,5.214937890080432e-7,0.0006684279978570845,5.429311849459445e-7,6.1114370380613804e-9,0.000004071198354872887,0.0009614726145127172,0.9999931486321667,0.001619364385646671,0.00158350763928247,0.001076311606333718,0.0016181021103772318,0.0016350728940556036,1.4839942368289784e-7,1.5308435133385055e-9,1.7124182010930537e-8,6.531572367985582e-8,1.0472052415119146e-8,0.001647119836319408,8.295977423901207e-12,9.065474513156763e-10,0.0000012513722829914038,0.00147979454053867,0.9999951061531122,1.5050995743535828e-7,0.7795490147358929,0.0008589559255720596,0.9999957052697424,1.8039337084498287e-7,9.868025246062005e-8,1.876973352988864e-13,2.5802980638278274e-7,6.418908089644375e-9,0.000001002335311572433,0.0007749732963261738,0.000002671107398081341,0.001966450868693229,0.0005634345483241633,5.135137896942193e-10,0.000736115239531851,4.077485301836102e-7,0.0007814632434087934,1.4408819517817552e-9,0.0005831834981320579,0.0011690656731872338,0.001667995540595891,4.4567720387896505e-7,0.0007585923596200138,0.0014746592019714256,0.9999963321460366,0.0020305390859374343,0.000901899179879103,0.9999974776074132,1],"InputLayer":[23.983333333333334,1],"OutputLayer":[3.237168709418366e-10,0.0007620374989281586,0.2120832845399856,0.7800136443908839],"WeightHidden":[[-0.6875718201930249,1.7341212747060024],[-0.2842888464332243,-0.06584044829757273],[-0.6023033340799184,-0.39295807957024587],[-0.9148367102587946,1.1058592090562327],[-0.84765322995787,0.8334878182098946],[-0.9202072100779907,1.0386056848169132],[-0.6898674248445703,0.04845717135476169],[-0.6076714898623325,-0.5980245191290932],[-0.7572343582658643,1.0218908931307307],[1.4745340930100537,-22.442618390992383],[-0.9935860271633393,-0.09806216997694417],[-1.1686264883784518,7.459343902327123],[-0.6537412579893483,1.2079728797504337],[-0.3205363937983134,0.35797198453065787],[-0.5599769033914123,-0.9991299598075482],[-0.8171100083010326,0.6786668243849548],[-0.42703050679377924,-2.1710574781412126],[-0.29176641595613756,0.028784441322329383],[1.3492228884131507,-20.46760879825471],[-0.25099163395450674,-0.42969050389608804],[-0.2571572246288359,-0.3044675628319378],[-0.2810278017062051,-0.11715981956338296],[-0.24968919804427767,-0.46241804105707873],[-0.2508200549331316,-0.42546480057614394],[-0.7799131462757684,2.976376459373323],[-0.8258752947001803,-0.4905877762272383],[-0.7473403230812297,0.03739626436565305],[-0.8472570764313756,3.770567713875173],[-0.7851192307436662,0.4506896962717713],[-0.2506784937649584,-0.421644409026708],[-1.0489428093147126,-0.35802723659397284],[-1.0402287299439221,4.120344177178679],[-0.5125888737832779,-1.2999748254589525],[-0.2589053569471868,-0.3303867392648831],[1.5040735139987431,-23.84508225695104],[-0.7814761048285167,3.027917353699569],[1.0639858971395184,-22.49675482377719],[-0.30085570503891695,0.13479984265223205],[1.0771481160577667,-13.456996366577432],[-0.6693858650655639,0.521340283533752],[-0.6624486323114295,-0.24783677633231166],[-1.2483850114419859,0.6364959961336416],[-0.6655405713833217,0.7875766310136973],[-0.7855368660701101,-0.028577211513581304],[-0.6073198903341551,0.7484628995872623],[-0.3087830785117569,0.22278027991663177],[-0.5226036018594622,-0.30305230204350064],[-0.22975085562725575,-0.7475080896193022],[-0.3319746837593706,0.46206443005028003],[-0.9364072540660484,1.0634248132215491],[-0.31244886828174506,0.2594346805403838],[-0.6881007224683794,1.7860377468167918],[-0.3085704997374717,0.22611383656469972],[-0.8880948670590048,0.9372148217663887],[-0.3289893741013581,0.42446309002902843],[-0.27664063516967674,-0.1400928047692441],[-0.24852351096200495,-0.46047349407305443],[-0.5857070730298807,-0.5798373504141225],[-0.31093371968812333,0.25336097002287944],[-0.26177374627930994,-0.2645752243709617],[1.4467389115776526,-22.181662098695003],[-0.22254351115308388,-0.8884002881891493],[-0.29714247329165405,0.0940031594230717],[1.5010849811437168,-23.110624337856933],[0.14183315640572447,-0.7216911775906472]],"WeightOutput":[[0.40439398641929736,0.3535336208807085,0.05472972434864489,0.09189763844842998,0.27644578904557005,0.1880777327743561,0.28978302559068825,0.7922787221737156,-0.11361952994705453,-1.6892155499184802,-0.2922854100893388,1.475321443408783,0.5276787718533458,-0.43605758386432353,0.3907402257882547,0.6875068382593023,0.23200435087603608,0.1576918753599845,-1.508482858443022,-0.011458781050660633,0.39735543242473975,0.5120952936552058,0.3308762517923746,0.8007441998054494,0.6377004646621568,-0.39121260702276095,1.04053418135001,0.4576657854501088,-0.10539868730163565,0.8939556130440445,0.04466392659726992,0.43811478317663427,0.07073873282428281,0.43541331823198715,-2.015385003984677,0.6888065292778719,-0.38371107404768034,0.019184935832708142,-11.100062032257268,-0.42524805181725156,0.9504761725055093,-0.15929772013688046,0.72526521247861,1.3684636741072707,-0.051681616046131106,-0.14606086773457452,0.39405396095642997,0.9934000695434101,-0.4662207123510115,0.5700617111193337,-0.13075569149517535,0.012217555533885415,-0.19821924146132533,-0.24847479153800506,-0.307990313056863,0.6285289937443396,0.6227276108889506,0.3088510026329701,-0.2730258187476559,0.28018376458708566,-2.4258831765702165,0.8036205221747187,0.20806758340816817,-1.6003324703009587,-1.2262932095929335],[0.2106100484049149,0.31356047959437217,-0.6166613122537093,-1.7046789543002883,-1.004103980433873,-1.6891238698049662,-0.41719885014463115,-0.06246737943232674,-0.7664645466214213,-1.430993285529933,-0.31206034316462267,1.4122882214080876,0.2820646487415932,-0.48407706210171764,-0.3616600389785932,-0.8078192677875703,-0.12586116865673797,0.11559173440239717,1.3524514961002674,-0.044475662871165875,0.3665746296014541,0.47325794746586464,0.29995898242297053,0.7733765293300892,0.508037613138485,-0.7664043478100255,-0.13833256518447046,0.3550644047990897,-1.402604625101691,0.8674747527367024,0.3635453548016926,0.1408148788671998,-0.4965461608903979,0.40300251815451826,-3.411432276072586,0.5623888580716287,-1.2604928378550087,-0.024912200973941905,2.406299113891258,-0.9847719253233287,-0.07392844601211036,-0.11105633875788594,0.35037596983743385,-0.6422493041914457,-0.30177210229940077,-0.19195061369391678,0.01565591165295251,0.9741047758718333,-0.5159556104146555,-1.6525630718717241,-0.17715855238843886,-0.16391439216585418,-0.2441042594870688,-1.7827420686801043,-0.35720744711988994,0.5922544135751371,0.5946427186932286,-0.36803134843477325,-0.3194466954659724,0.2469427748921838,-1.4872857987481827,0.7854385623820224,0.16546203658025938,-2.7202844284582715,-0.911102676167027],[-2.656897887845631,0.3559675607733875,-1.3578056304143065,-0.38949916887252983,0.1942303084065103,0.28701681842364984,0.13835390207068163,-0.8180788362761603,-0.9949788038658637,-1.298540506931358,-0.2479078286224696,-8.104395996365577,-2.2540659191983736,-0.4459002658634573,-0.22361114891504696,-1.5408524400056822,0.2359821806244073,0.15773095286161096,2.4134926863377224,0.040944810051545294,0.4309165611896649,0.5136012703930485,0.37521797722578454,0.8316163607966716,-3.319527951040943,0.023417098267154938,0.6269036931390838,-3.90042777314325,-0.8304275712759451,0.9228168508604979,-0.17444700788278528,-1.1099916454272378,-0.13060216110141507,0.46544227705955366,-0.7424221813198937,-2.9349309101656376,-1.3570506948826715,0.013984571168955816,2.4349982826508834,-1.2662092716565976,-0.5695053853133536,0.565316635787649,-0.6324924263615797,-0.25888473930849193,-1.1829257026970363,-0.15423774215822755,-1.2780922351709882,1.0494767163630314,-0.48638495827799355,-0.2515060144191053,-0.14306337343972075,-2.3079571070742255,-0.20436074963745846,0.38737910571739115,-0.33099214544713074,0.6328910213007352,0.6608759585204425,-0.4147543128468022,-0.2791009038740613,0.31126684834429136,-1.0908776247662462,0.8786581631228159,0.20142566338286202,-1.0981825368544456,-0.9513216792579153],[0.2244401644145703,-3.3385865784768605,0.6401148522612337,0.7726481656508416,-1.0210675518085046,0.11206253126602074,-0.019735119225050057,0.5384091342512065,-0.6197983605633762,0.6544478542079292,-0.8657634566043806,-0.9741766299494821,0.19219808358123208,-4.835154772367249,-0.06157799543064614,-0.6189437049125233,0.18008560192481288,-3.6437158426644265,3.9004554612742433,-2.603635445534381,-2.318751390821279,-3.197405463434378,-2.3901738673342017,-2.0181171810928187,0.038762076786249565,0.8185407206183934,-0.3317630988172429,0.4665139101476189,-0.42497981217732045,-1.9317097638162761,0.3150800028286564,-4.4433761918645285,-0.03296531314772106,-2.475839320228704,0.22531226659265627,-1.799165817225426,0.621179857603447,-3.992769906294901,2.5683364680327974,-0.9493237469905895,-0.9207662866156209,0.1279840832224364,0.21192641334077966,-0.5807808664261771,-0.7833278453588481,-4.3386950242598985,-1.24756271067039,-1.5522617685864182,-5.389770207049434,-1.0232311721946248,-4.479039737114832,-0.021058272244486392,-4.327146221941968,-0.07326833694405045,-5.25568330817427,-2.887761798129857,-2.1112578649792644,-0.28317242884680704,-4.433905038261711,-2.550938386379038,0.4967821176285274,-1.6610561564324866,-3.7696276765057015,0.5611908912594803,-7.474183952535989]],"ErrOutput":[3.237168709418366e-10,0.0007620374989281586,0.2120832845399856,-0.21998635560911606],"ErrHidden":[-0.102632385819259,0.13864123172514967,-0.07228397242295394,-0.04297072851273445,0.04542616698361731,0.005940750268451126,0.005647975817192409,-0.049316571055701086,-0.011866315734252394,-0.0700549171539268,0.02389479568374356,-0.25044540262146175,-0.08713892387729506,0.16671477799239875,-0.005600534083517277,-0.031244340398621402,0.001565260811232501,0.1431335752727365,-0.06102923255239753,0.09973409337267766,0.10280109237483508,0.13889857434697267,0.10352317667081166,0.10565381416995628,-0.11910681940637859,-0.030068800445793048,0.0347407466187607,-0.15584073734305784,-0.013389002913528833,0.10562431296319713,-0.018075816514879866,0.12839049399844932,-0.003384448287346118,0.10995438664695056,-0.03414825181759289,-0.03609862359377178,-0.07102036080117846,0.1512151448656546,-0.009981996311511088,-0.00903992176796492,0.014573776105778116,0.015203592955940053,-0.030415093606848735,0.012748066625609906,-0.012353967846176518,0.15831117416685417,0.0017974458912881422,0.09579001548283016,0.18621552558832322,0.02971058640750717,0.16400490527059244,-0.08099908694612955,0.15609884694328716,0.01649339669092848,0.18666123623579842,0.13143790632786315,0.10311857243240632,-0.004009901625539363,0.15747992955855045,0.10732515931927136,-0.05674382349875991,0.09384291567127898,0.1494350203094562,-0.059434722817642296,0],"LastChangeHidden":[[0.0001868025372547403,0.000026620966925327535],[0.000978540987254301,0.0000518420274541319],[0.00014868932422547177,0.00002124845368562998],[0.00020281382282409682,0.000028972337768074306],[0.00017546229970160932,0.000025066458400311084],[0.00019087285095507504,0.000027266841741559476],[0.00013229025726047987,0.000018900587068081243],[0.0001491126766287805,0.000021303543791197072],[0.00020072264742103098,0.000028672246974530663],[-0.0000014805522028444881,-8.175070835066888e-8],[3.8790187064270285e-7,5.482449868991998e-8],[0.00039045964019736535,0.00005547297847221091],[0.00018045598547164298,0.000025737366690126845],[0.0008170994119958615,0.000049203086814146796],[0.00012268729101097577,0.000017529280344757267],[0.00021764674522648338,0.00003108940184568425],[0.00004573330778072662,0.000006534359522117676],[0.0009428589362384424,0.00005132761025885066],[-0.000008232476630708971,-6.427619466413544e-7],[0.0010487934661109843,0.0000520773147123126],[0.0010579968580762635,0.00005260388489061746],[0.0009987257486806357,0.00005212032040491889],[0.0010783616909623098,0.000052658921225518696],[0.00110414762525509,0.00005316315485789144],[0.00021480330899370552,0.000030558086827191305],[0.000015888361945553743,0.000002268883419361688],[0.00014679538906466836,0.000020972184932885955],[0.000225826916237685,0.00003211408430210794],[0.00018779299098784294,0.000026826547492742396],[0.0011098729330514423,0.00005323973859525295],[-0.0000032366066246227797,-4.617127348661149e-7],[0.00026653447871414045,0.000038070163777895325],[0.0000951708916647993,0.0000136020882161697],[0.0010580861430447273,0.00005264976530901513],[-0.000003625242214180868,-2.564730579469479e-7],[0.00021753313592183944,0.00003094865286832113],[-0.07317924268641995,-0.003051253748163756],[0.0009063961875312062,0.00005079338029164768],[-0.0007663287450052888,-0.00010931891382841447],[0.00019224976327787856,0.000027460220689594364],[0.00017334924587004356,0.000024760289814357243],[-3.227287536791638e-7,-4.628711317284942e-8],[0.00017053157245344294,0.000024351731193475404],[0.00018038115268534456,0.000025767997716242932],[0.00016229346652810262,0.000023165296487828967],[0.0008718676008898627,0.00005021661447743723],[0.00015808474069124135,0.000022543015822967334],[0.0011712111044403536,0.00005333375427003712],[0.0007859867743988416,0.00004869603692831273],[0.000207171791105481,0.000029594587256785947],[0.0008628109010217584,0.000050105904847793497],[0.00017808466585445158,0.000025390744012543763],[0.000868290863411614,0.00005013241491088416],[0.00017615560919467997,0.000025164954640318966],[0.0008057379647544751,0.000049130542149772394],[0.001018385734816659,0.00005241748742902496],[0.001099906292891537,0.00005301902847313033],[0.00013988363640711978,0.00001998329362344152],[0.0008559716693556081,0.000049899752108158106],[0.001037272556689413,0.00005236800315262367],[-0.000002466452013272873,-1.6009481575077646e-7],[0.0011783638251145212,0.000053046755610091186],[0.0009301080805835646,0.000051220905975003495],[-0.000004031489152146342,-2.9270684016797394e-7],[0,0]],"LastChangeOutput":[[0.00014282755493386727,0.00036803247707551306,0.00003194590734940809,0.00001618885209129901,0.000019668048527252077,0.000014571165302728306,0.000026917984259093977,0.000025117872752537015,0.00004445592719983374,1.7581867366953892e-8,0.0000027660959276313794,0.00106923861855808,0.00010810410585367571,0.0004278141378011466,0.0000234479208465256,0.00002092401830909396,0.000018339103791025733,0.00038217788673361734,5.245970735100236e-8,0.00032711442242553464,0.00035206907821411384,0.0003587717509248254,0.0003201734821093603,0.0003285746127835708,0.00025059271680462006,0.000006044173676403591,0.00001787505064519467,0.0003363000526195915,0.00002079166411982196,0.0003299742421274481,0.0000014478588319344063,0.00013279223089818494,0.000024125726372161672,0.0003402992637427051,5.3237532171155565e-9,0.00026018260827245906,5.575717669026237e-10,0.0003968302092542157,0.000008105246768532027,0.000049727180260307014,0.000024348428777119768,9.693177794628652e-7,0.0000662052610922097,0.000012861878907074687,0.00009476461807740436,0.0004083945926402869,0.00006055234365249738,0.0002802020867498849,0.00043692704387879495,0.000013358113637465421,0.0004123732452500513,0.00014945499680311554,0.0004101227501749157,0.00001645604923435317,0.0004306124196454043,0.000361182496010586,0.00032303123007320093,0.000029764736398094625,0.0004140061740649198,0.00035454453266134893,1.8765810229611352e-8,0.0002578371290746573,0.0003916334836433768,1.086395484740304e-8,0.0032017927539844332],[-0.00014298047343880077,-0.0003676888694306356,-0.00003197410403056154,-0.00001620462724093744,-0.0000196881422741118,-0.000014584924028088135,-0.00002694469076656494,-0.000025140073266457574,-0.0000445044063259382,3.698935523384972e-7,-0.0000027662172904092695,-0.0010707068944105834,-0.00010821340578475325,-0.00042756161763066056,-0.000023466450405864977,-0.000020945535715008236,-0.00001834512992724028,-0.0003818496292426195,4.556746398736152e-7,-0.00032669078158830225,-0.0003516327706621407,-0.0003584251580594788,-0.0003197532873721925,-0.0003281443438544432,-0.0002508911036013492,-0.000006049001223984075,-0.000017892765680160823,-0.0003367206305928345,-0.00002081288009920922,-0.00032954087091835297,-0.0000014466983603663416,-0.00013296675915442654,-0.000024141795713381024,-0.0003398870000618376,2.2241278352037477e-7,-0.0002604930140751487,1.1322629136147547e-7,-0.00039652423556047405,0.0000017604414828480958,-0.000049777245412420394,-0.000024371734247030236,-9.656688368819995e-7,-0.00006627249281977713,-0.000012874132460979725,-0.0000948522466225505,-0.0004081103133389644,-0.000060594589986976086,-0.00027976483271859015,-0.00043671287080168934,-0.00001337031192107527,-0.0004121000165388131,-0.0001496155359387575,-0.0004098362775416795,-0.000016472216441678017,-0.00043039046532457955,-0.0003608148705589019,-0.0003226006550923445,-0.000029790034371215517,-0.0004137260689981608,-0.00035412508871713645,3.496256775194765e-7,-0.0002574131461723512,-0.00039131688751743845,2.9857805824673806e-7,-0.003177882762398375],[8.810831145921149e-8,0.000008744301486658427,1.7739046809101094e-8,1.3072952541575663e-8,1.5175938460387923e-8,1.1803512439863588e-8,1.714354388722564e-8,1.4045645543901845e-8,3.116547886077044e-8,0.00885975150213271,2.3188751667594463e-9,9.168151330415098e-7,6.319070413050128e-8,0.000005448221282909674,1.3105392034193692e-8,1.5707180478761095e-8,3.323726562555078e-8,0.000007992166611868178,0.008859590744591672,0.000013753673466263402,0.00001341039569718732,0.000009003354108249727,0.000013749573337137745,0.000013885516946238481,1.7583678282441134e-7,4.5886358598901315e-9,1.2413477083509299e-8,2.526837998831561e-7,1.5108583802757095e-8,0.000013988421813289488,1.2353039361729546e-9,1.1263054957008322e-7,1.613518448721383e-8,0.000012521747958412793,0.008859888866457052,1.8287343591832918e-7,0.006906795508741938,0.000007098669145502878,0.008850231335640692,3.042646460929583e-8,1.4785768773888623e-8,8.55596974572214e-10,4.010739525500947e-8,9.356516541088055e-9,5.204326561025253e-8,0.000006370384859798394,3.739240380241929e-8,0.000016839503368388122,0.00000455180760494228,1.0912433563542739e-8,0.000006035152350060319,9.244551828105025e-8,0.000006424778191200386,1.3077854866206239e-8,0.000004722255056140458,0.000009802775221084571,0.000014179751080629697,1.6393658882885117e-8,0.0000062265227461347635,0.000012461651321358148,0.0088597595739325,0.00001743217863943455,0.000007471177236899699,0.008859828860340067,0.008834501776351485],[-3.7013647501499356e-9,-0.000009883383630566677,-3.4063797833880857e-9,-8.487007908768632e-12,-3.234826565276401e-11,-6.9741803520337656e-12,-6.483460768467738e-10,-2.4396422183674793e-9,-3.4169529797707777e-10,-0.009437000315098414,-3.8345386951885984e-13,-1.1153816056223829e-11,-4.922099415982743e-9,-0.0000063081393446261736,-5.124096003089529e-9,-5.7697047400180946e-11,-3.842143177198778e-8,-0.000009073639896926116,-0.009436958120968232,-0.00001528222231988126,-0.000014943849618945092,-0.000010157386249450578,-0.000015270309107128356,-0.000015430469103719736,-1.400902850613306e-9,-1.4452772148304228e-11,-1.6164454389433066e-10,-6.166828929528574e-10,-9.885805812693681e-11,-0.00001554415814471785,-7.840746138591881e-14,-8.567318794687348e-12,-1.1809988884796023e-8,-0.000013965094432735082,-0.009436976001449321,-1.4208309064092525e-9,-0.0073565998968807824,-0.0000081061780803084,-0.009436983602344429,-1.7026618906095824e-9,-9.313975995565094e-10,-1.7779052537634146e-15,-2.4354321687162584e-9,-6.059569772346977e-11,-9.460151175111181e-9,-0.000007313622823447028,-2.5209026522105205e-8,-0.000018557692210993022,-0.000005317299367351334,-4.849941663936314e-12,-0.000006946914203435192,-3.848654500393702e-9,-0.000007374869408940688,-1.3605941590283223e-11,-0.000005503673893513771,-0.000011032719009299933,-0.000015741160482860823,-4.2062907347618e-9,-0.000007159033580554469,-0.000013916635780512603,-0.009436988542061408,-0.000019162486430654346,-0.000008511439725370011,-0.009436999403657876,-0.009437024229402442]],"Regression":false,"Rate1":0.25,"Rate2":0.1}
