{"HiddenLayer":[0.023762916541904516,0.0518066272256641,0.9834967831781462,0.9999996597842736,1],"InputLayer":[-1,1,1],"OutputLayer":[0.005651154660612893,0.9943844392066835],"WeightHidden":[[3.7392356139800755,-3.6962337320189484,3.719886289489849],[1.0242451201928413,-0.9207425720192867,-0.962050605133695],[-4.104866351572251,4.068777619430472,-4.086079077758671],[-5.028051098351903,5.062725923916916,4.80290869199812],[-0.6313043199654175,-0.537129707678137,-0.9254597009908545]],"WeightOutput":[[3.1788689819922493,-0.6659058357670368,-7.8204608462362515,10.20064963042388,-7.720541800229355],[-3.8132033156458585,1.5659445207012541,7.4520155574457485,-9.910767014854072,7.767823494950315]],"ErrOutput":[0.005651154660612893,-0.0056155607933164875],"ErrHidden":[0.00022051759326706556,-0.00007024982564171702,-0.00048201496424795504,0.0006346991723051049,0],"LastChangeHidden":[[-0.0000012677831977080809,0.0000012898120655050825,0.0000012656617269438915],[3.655818592716119e-7,-4.1904144361626043e-7,-0.0000012994032636982926],[0.000001938877746074468,-0.0000019727264306323784,-0.0000019354107511525704],[1.2114646954571995e-7,-9.904291386762346e-8,9.677828638774843e-8],[0,0,0]],"LastChangeOutput":[[0.0000012747874277324062,0.0000012398187937060556,0.00000780632378735622,0.000007860540742890566,0.000009022854891295991],[-0.0000011311465084453055,-0.0000011278172231092147,-0.00000770870702652681,-0.000007769248419140728,-0.000008782384751157278]],"Regression":false,"Rate1":0.25,"Rate2":0.1}
