{"HiddenLayer":[0.7847649128119247,0.985580674143328,0.02038556357810822,0.08031952968425919,1],"InputLayer":[-1,1,1],"OutputLayer":[0.003845318332367227,0.9961991896608622],"WeightHidden":[[-2.007931994421935,1.4295427342540934,-2.143817575820219],[-4.767461985613929,-5.14384323478178,4.60104591206478],[-4.349125514243767,-3.9573992549830477,-4.264061689821142],[-3.0319627496989194,-2.554002751635844,-2.9159792016342427],[0.2285413455709122,-0.6296948757468515,-0.766954703872129]],"WeightOutput":[[-1.0648377324275125,-10.330148060985673,7.833597852163243,3.4285102528430995,5.024718445077219],[1.0944024325937802,10.337377187523105,-7.603149933616231,-3.6848696496114575,-5.027465254014855]],"ErrOutput":[0.003845318332367227,-0.0038008103391378167],"ErrHidden":[-0.0000314343897123193,-0.00030092679174822533,0.00022480472525131983,0.00010353053056422792,0],"LastChangeHidden":[[0.000001491364820024833,-0.000001161802175035898,-0.00000116043423674818],[0.0000011894883449620914,-9.203931914632312e-7,-9.488297841061611e-7],[-0.0000011065743918701488,0.000001108976949328018,0.0000011355771541272429],[-0.0000018891239710778172,0.0000018894707957799351,0.0000019305369027088287],[0,0,0]],"LastChangeOutput":[[0.000002807236700684647,0.0000037182634828928743,7.121945745199011e-8,2.942196984689844e-7,0.0000024466551530717836],[-0.0000027410121510624634,-0.0000036352609801376107,-6.95331018226827e-8,-2.8746970789783503e-7,-0.0000023648946666585824]],"Regression":false,"Rate1":0.25,"Rate2":0.1}
